{"input_size":11,"hidden_size":64,"output_size":8,"hidden_weights":[[0.25695515,-0.013330674,1.3456957,-0.26652813,0.59102374,-0.422079,0.03968828,-0.57787144,-1.2160571,0.03730565,0.2927079,0.5746067,-0.5856553,0.392865,0.6305265,0.76616776,-0.9624548,-0.89093256,-0.9086557,0.91533995,-1.9250352,-0.86743325,0.2756304,-0.24149461,0.59846324,1.777499,-0.20660745,1.0012993,-1.5640795,-0.9851934,-0.23242947,-1.1700565,-1.7286243,0.34453514,-0.057710845,0.68497735,-0.39392543,-1.5225405,0.027170269,-0.70594424,-0.166551,-0.027839603,-0.96019393,-0.6342988,-0.039743006,-0.18330605,-0.9569515,-0.063424714,-2.9542992,-0.123910464,-0.5125058,-0.3042282,0.40840706,0.14038238,0.86022174,-1.3829044,-0.064512275,-1.164243,-0.044160806,-0.18090813,-2.0308151,0.9841397,-0.69477963,-0.9094346],[1.5512137,-0.039327778,-1.9716213,-0.5276443,-1.3477677,0.066147976,-0.5790723,0.41477838,0.41935024,-1.7208594,0.98396796,0.38440508,-1.241402,0.026575975,-0.18603036,0.41777077,0.5384515,-1.4465352,1.5351385,-0.7787747,1.5723933,2.2594042,-0.81580985,-0.2558641,-1.8709555,-0.9551525,-0.0034856894,-0.24479006,2.2026873,0.36865208,-1.414233,0.31785232,-0.435778,0.014525697,-0.046929523,-0.42521995,-0.9982238,1.488226,-0.228771,-1.1179273,-1.7609655,-1.3682516,-0.39682293,0.65886563,0.046229143,-1.1734678,0.5438723,-1.7688307,1.4591511,0.29218706,1.3890464,0.7549674,0.83755183,0.05276861,-0.98008555,1.6990193,-0.07742751,0.4223432,0.095681675,-1.2698667,0.44584075,-0.27295327,-0.83576196,2.394269],[-1.95073,0.016554525,-0.2502893,-0.488628,-0.25797084,-0.4098752,-0.51301587,-0.18021938,-0.4520228,-0.38136393,0.44352356,0.47894907,-0.31706294,1.3216566,0.9339828,0.8238821,0.044500068,-0.53692615,0.67596596,0.13093849,-0.7092357,-0.37991625,-0.2294689,-0.22008397,0.2840266,0.5032772,-0.2750497,0.039694943,-1.4110993,0.6631684,-2.4631772,-0.29783934,0.33271316,0.13650893,-0.08984668,-0.07745448,-1.1411415,-1.8093779,-0.53926027,-1.618357,0.7417004,-0.5076852,-0.9167266,-0.83398336,-0.5569626,-0.17579831,-1.0978969,-0.684542,1.0235039,-0.57010186,0.20078392,-0.6772684,0.6541882,0.2074498,0.2118464,1.7153598,0.038565483,-1.3276596,-0.0644429,-1.1531141,1.871918,1.0927224,-1.283186,-0.01881666],[-0.5852485,0.0069534145,-0.73105305,0.50313956,-0.5207686,-1.0091962,-0.89868385,0.3561408,1.185872,1.0065666,0.26481053,-0.12762278,0.03866595,-3.2085962,-1.4261454,-2.384306,0.7567322,0.43802553,-0.45905593,-0.77157605,1.0087944,-1.9921905,-2.8620462,0.5439342,-0.10761645,-0.24880894,0.8273974,-0.035943724,0.0065726005,0.13985497,-0.34176722,-0.83001655,0.056766972,-1.2521735,-0.03135765,0.16574672,-0.044926666,0.085925594,-0.6039152,0.046107627,0.35571238,0.68956935,-2.7318423,0.85908216,-1.864474,0.12561773,-0.40860614,-1.2582544,0.34648693,-0.045746185,0.3150347,-0.64988625,0.1406722,0.049555708,-0.34095916,-0.037232686,-0.019791005,-2.3979416,-0.032965615,-2.1773179,0.06890702,-0.95395726,-0.34706584,-0.35877734],[-0.13189927,-0.024987739,-1.7407583,0.11355512,-2.1425767,-2.0113237,0.6629797,0.5245939,0.54035497,-1.3084382,-1.9101126,-0.13073191,0.40059033,-0.8139382,-0.9881022,-1.4182948,-0.5883275,0.18582661,-1.0093081,-2.1200361,-1.6297188,0.102260984,0.58624697,-0.23604968,-0.48802552,-1.0539677,-0.056904916,-0.053585913,-0.82729375,-0.0010205583,-1.9074878,1.3162713,-0.6774497,-0.71721476,0.01664142,0.20311075,0.16982405,-0.5633657,-0.7706409,-0.67134076,-1.0777562,0.14947337,1.3051171,0.5685004,0.60766786,-0.19629724,0.114151426,-0.1128554,-0.42155147,-0.016322352,-1.516279,-0.333668,-0.14016525,0.089391485,-0.6314839,-0.42206252,-0.04998071,0.74949723,-0.03513742,-0.16629784,0.3110574,-0.47538182,0.85931575,-1.1707468],[-0.9732817,-0.030970031,-0.22407807,0.15717205,-0.66149074,0.38987935,-0.0037149484,-1.2814642,-1.5329027,0.55502415,-2.2856112,-0.11507441,-0.41130814,-1.7807206,-1.2214304,-0.019686127,0.5109475,-0.08936406,-2.8566475,-0.012839034,0.34110963,-0.7521009,0.69420826,0.01529372,-0.219417,-0.69345886,-0.3910677,-0.18970294,-0.012620005,-1.1275196,-0.5717308,-0.19127245,-1.2519158,-0.20594932,-0.08460441,-1.1890447,0.3046099,0.53682053,-1.170134,-0.12755537,-0.8832345,0.78110325,-1.5222147,-1.2525029,-1.1919488,-0.69433284,-1.3884758,-0.99293894,0.31345677,-1.5447676,-0.85167855,-0.9727073,-0.36146623,0.1137381,-1.0516632,-0.5403163,-0.03848511,-0.9472787,-0.08242504,0.5389177,-0.79837793,-1.0732528,0.13820897,-1.1458349],[-1.3794379,-0.055139575,0.82256556,0.5118391,0.40313986,1.0722334,0.022666186,0.31659496,-0.7194664,-1.3220536,-0.36739105,-0.39850706,0.81447643,0.7107118,-0.3644073,-1.370102,-0.57885206,1.1575843,0.6965184,-0.24639152,-0.59448564,-0.8928064,-0.79282457,0.38441792,-1.4477524,-2.3820987,1.3432224,-1.3643081,0.3333469,-1.6387117,-0.059321176,-0.48624295,0.41839606,0.3120744,0.024999153,-0.8434504,0.690854,0.22606969,-0.92602,0.3057346,-0.6882808,-0.87343425,-0.8795287,-0.4107572,-0.18416607,-0.70939964,1.0642973,-0.057711206,-0.40849143,0.4711862,0.27129424,-1.9523071,-1.7290288,-0.5105565,-0.31971014,-0.8687727,-0.039596476,0.31148735,0.01557873,-0.71766883,-0.4132859,-0.48498076,-0.9527633,1.2588782],[-0.15480044,-0.097601146,-1.1565467,-0.00556611,-0.33341143,-0.053773094,0.014276695,-1.2286005,-0.94586444,-0.45918927,-1.0977421,-0.21854465,-0.57824016,0.78163135,0.2402691,-1.247308,-1.2181383,-0.49670753,-0.71474683,0.31134808,-0.4006301,0.19809334,-2.2228882,-0.028391827,-0.1478822,-1.0602145,-1.5492016,-0.26176986,-1.505344,0.50681096,0.41904464,-1.5212413,-0.77370644,-0.2827794,-0.09462668,-0.4992882,0.08446492,-0.1541492,0.07508014,0.16069447,-2.1481102,-1.5359873,-1.2856247,0.32351488,-1.0009425,0.18688916,-0.054970484,0.9765226,-1.9145993,-1.082306,0.9316605,-1.0632927,-0.5109439,0.060818225,-2.6713085,0.05760173,-0.0826137,0.5157478,0.017006664,0.25846153,-1.2512147,-1.1988262,0.26258838,-0.636024],[0.004092853,-0.07032365,-0.58549696,0.06534822,-0.19581118,-0.474294,-2.6457605,0.307062,-0.11756994,-0.42175323,-1.0966908,-0.22108045,-0.72620636,-0.49812096,-0.17523953,0.17011036,-0.5446519,-0.21454366,-0.6156401,-1.9345201,-0.33936894,0.156828,-0.4999474,0.3945842,-0.0114294905,-0.8842047,-1.3871329,-0.1211853,0.20196597,-0.82851416,-0.14842358,-1.1655778,0.34160867,-0.16776575,-0.10067971,-1.5048622,0.092735454,0.26159385,0.864373,-0.5768601,0.22966084,-0.39355746,0.61972755,-0.8979723,0.9571117,-0.53383905,-0.24124345,-1.2855757,-1.1425991,-0.4784733,-0.8045031,1.1004717,-0.61058503,-0.027382793,0.22418934,-0.35438254,-0.024940068,-0.46790823,-0.06339881,0.51461196,-0.1636118,-2.1026683,-0.27639505,-1.4521524],[1.1030303,-0.048893802,-0.03536254,-0.11722655,-1.1612049,2.2009618,-0.024268022,-1.6725377,-2.1603694,-0.9980643,-0.5025382,-2.8896325,1.9506264,-0.14580484,0.45461938,-0.03852416,0.27305883,-1.2733809,1.1619728,-0.5580548,-1.1838739,-0.36722007,0.14621866,-3.072305,0.7455683,-1.2701737,-1.1470038,-0.097319074,1.5119821,0.37507203,3.0851095,1.5151343,0.60926133,-0.67537344,-0.06556659,0.23518404,-2.0631018,-0.8521125,1.4496657,0.23212084,0.93069047,-1.4967473,-0.06387636,-3.2937293,2.7531283,1.848414,0.09093652,1.2400564,1.3623228,0.30047843,-0.98896146,-1.0763013,0.7350089,-1.6368754,1.0878814,-0.52320516,-0.03241924,0.090468474,-0.08251379,-0.024479771,0.52540624,0.79216135,0.59286726,1.8623075],[-0.75459766,-0.09283855,-2.4784553,-1.6843535,1.6013483,-1.7534741,0.9457624,-0.26983577,0.43659702,0.27176905,2.611851,-0.06624291,-0.998433,-0.834062,-1.2191842,-0.54378486,0.9217442,-0.16462885,0.84744614,0.212418,1.730237,-1.1773336,1.301677,0.67804563,-0.31249195,0.8547385,-1.4879179,1.1012248,0.43714577,2.1782057,-0.24086855,0.714182,0.7588899,1.1432797,-0.058981154,0.7422552,0.8981483,0.1929819,-0.69447756,3.1176558,-0.51550287,0.6829729,0.4032204,-1.1042441,0.34518516,1.0481622,-0.5866564,1.4607567,-0.30973834,2.5802035,-1.0863798,0.4436139,-1.4503872,-1.327001,0.5702548,-0.70773536,0.05661368,-1.4542023,0.0076579913,-0.26540565,-0.2386204,1.5869584,0.4657168,-0.464569]],"hidden_bias":[-0.521458,0.041357633,-0.9927227,-0.00025869213,-0.8231421,-0.36393005,-0.61808795,-0.19816048,-0.36836872,-0.65024537,-0.77467495,-0.033490438,-0.37437952,-0.69170153,-0.44090095,-0.73489726,-0.22770454,-0.17990132,-0.36815083,-0.86674887,-0.1128062,-0.1574153,-0.9731755,-0.021686127,-0.77547747,-1.1552341,-0.32054818,-0.4292828,-0.09660409,-0.36679053,-1.031565,-0.5199731,-0.2463114,-0.45590165,0.048152786,-0.571632,-0.05038608,-0.08638328,-0.5735323,-0.586054,-0.86881673,-0.4862776,-0.9810595,-0.08681786,-0.53157926,-0.5526431,-0.18972453,-0.8413375,-0.078146175,-0.49465612,0.044637125,-0.6047108,-0.2269103,0.031205786,-0.8382599,0.107546866,0.03677694,-0.55761683,-0.102533005,-0.60922295,-0.075042464,-0.9587029,-0.39610308,-0.26268992],"output_weights":[[0.13909332,0.46691635,-1.8064387,0.49371302,0.49910003,0.20104273,0.1778978,0.022154452],[-0.012119217,0.0012965986,0.07237251,0.039397832,0.017558033,-0.09125519,0.026920827,0.074281454],[-0.040013608,0.6717009,-1.2176521,0.21736492,-0.74576354,0.29058927,0.4445372,0.45771316],[0.98912966,0.84682226,-5.1593704,0.7022181,0.82581407,0.5109191,0.6051852,0.7942173],[-0.12917759,-0.065961115,-0.03655054,-0.044191197,0.6208813,-0.12725936,-0.012470987,-0.041136857],[0.31369093,0.91376376,-0.9521076,0.36234212,0.5698323,-0.020975271,-0.637488,-0.7014288],[0.19232851,0.032250747,-0.70176893,-0.10712242,0.30354914,0.04091965,-0.041560337,0.324026],[0.0658834,-0.75354177,-0.018074712,-0.12795617,0.0767396,0.057904314,0.2909682,0.60002804],[0.25411746,0.6076534,-0.6189367,0.3233934,-0.8667517,0.28047347,-0.20291412,0.1969414],[0.3697391,-0.40182325,-1.2916619,0.49611947,-0.07630962,0.14636965,0.2912624,0.3289495],[-0.37124714,0.5789124,0.15816723,-0.32508132,-0.055460103,0.16425623,-0.4526724,0.32680604],[0.3428144,-4.1273775,0.8208372,0.6682854,0.73642373,0.5385482,0.62457436,0.6019687],[0.6510483,0.63974005,-2.3171175,0.17691965,0.54689735,0.39356008,0.27986267,-0.24048671],[0.4080891,-0.83833843,-0.65522397,0.66723233,-0.1975082,0.044859834,0.59825766,-0.09117704],[-0.079370975,-0.68886244,-0.82406497,0.24522342,0.5244665,0.38742843,0.120942615,0.15773691],[0.27224493,-0.30082932,-1.0673096,0.5655859,0.16804832,0.6982721,0.4342335,-0.42624092],[0.1644809,0.36788428,-0.32564476,-0.38995522,-0.061826155,-0.2170004,0.30761456,0.15404211],[0.06500552,-0.39105088,0.3302859,0.31937665,0.5090993,-0.0488894,-0.2853815,-0.5954335],[0.08508339,0.63895303,0.73075527,0.26292154,-0.24160124,-1.9087584,0.31575188,-0.13005427],[-0.18194523,-0.77313787,0.5186765,-0.18614507,0.3574033,-0.041928202,0.122259885,0.11777137],[0.12565579,0.104765736,0.1255009,-0.0514472,0.18509418,1.0306897,-1.3001128,-0.039262526],[0.26243347,-1.1602091,-0.48926684,0.53242666,-0.39093918,0.5424603,0.12111197,0.58247733],[0.16472204,-0.7918638,-0.92505324,0.60586715,-0.04336694,-0.031055866,0.578131,0.30068693],[0.90678936,-4.656128,0.89399886,0.3600408,0.67293376,0.5273741,0.78459305,0.8215236],[0.43050376,0.8829746,-4.2788806,0.66234314,0.7184072,0.682325,0.61958104,0.44285232],[0.2028381,0.19347309,-0.46188873,-0.33794713,-0.057652444,-0.07406693,0.01342949,0.2991473],[-0.028783502,0.5447761,0.57650596,-0.06968728,-0.28644684,0.3184853,0.049250245,-1.1370904],[-0.39150435,0.047561925,0.22693776,0.19419312,0.06323173,0.11545696,-0.12186884,-0.08749414],[0.225628,-0.8371748,0.3044059,0.5183734,0.06539101,-0.40618268,0.025607979,0.23822837],[0.19978455,-0.36555076,0.11374941,-0.00808176,-0.17167898,-0.042849965,0.5316368,-0.32452235],[0.32688057,0.2505023,-0.36131224,-0.44058982,-0.13397965,0.090773195,0.05553877,0.24511752],[-0.13681939,-0.5276866,0.97664046,0.0404109,0.36183235,0.04518833,0.15148516,-0.6118278],[0.120274104,1.0328183,-0.41814148,0.20660342,-0.41138756,0.3256893,-1.3783679,0.32144752],[0.25797492,-2.0657027,0.46906877,0.25643155,-0.049088795,0.40890545,0.12797217,0.34345305],[0.121302076,0.022898683,-0.092813335,0.014834848,-0.035635803,-0.09801311,-0.09621106,-0.03197493],[0.025469622,-0.12211594,-0.43307498,-0.25553465,0.22644125,0.17488542,0.28903285,0.06767233],[0.579046,-2.4559424,0.22434756,0.32925242,0.13205218,0.29114372,0.19097464,0.4971185],[-0.08268466,0.6594929,-0.06476458,-0.0044165435,-0.6551565,-0.06941432,0.40186355,-0.17395858],[-0.084673,0.47891375,0.47239313,-0.36573166,-0.16245334,-0.23195106,-0.04116729,0.104478076],[0.13906428,-0.20871156,0.28629893,-0.13098954,0.27932495,-0.77454203,-0.0332485,0.43578118],[0.17964259,0.32879743,-0.8874569,-0.29112226,0.5262167,0.3565662,0.1423085,-0.47405857],[0.06503275,-0.2589749,0.7084673,-0.38125262,0.016936185,0.21239023,-0.27322158,0.014491328],[0.5397751,0.057218265,0.7216377,0.28389764,0.73425126,-0.23321532,-1.3199371,-0.7566118],[0.41499403,-0.78238946,-0.9551765,0.27286595,0.91128415,-0.22521089,-0.0041641137,0.37976906],[0.01769968,-1.0429664,-0.13125758,0.67614603,-0.029080074,0.24180192,0.14531188,0.2753027],[0.08831188,0.3219546,-0.47024393,-0.2769078,0.090251334,-0.01270608,-0.14342667,0.24805754],[0.10452658,0.12069118,-0.40469885,0.2968423,-0.2233601,0.85687804,-0.120389484,-0.6910711],[-0.112440415,-0.9338329,0.56088626,-0.3788386,0.4377333,0.48563817,-0.038394585,-0.21940914],[0.46054232,0.66922295,-0.118752,0.7531958,0.6597629,0.52484435,0.037669066,-2.990002],[-0.02145458,0.17744404,0.3636748,-0.5852998,0.29926047,-0.22733545,-0.188341,0.009052009],[0.040597204,-0.9944715,-0.13760568,0.53480047,-0.033321135,0.16988574,0.2220261,0.26913834],[0.2828345,-0.3983059,-1.6214811,0.15571015,0.8064965,0.61087835,0.299416,-0.054505475],[0.11997196,0.5251051,-3.7291393,0.39863032,0.5517516,0.6127099,0.5086258,0.71856445],[1.9021845,-5.4805284,-5.685446,1.9386455,1.8689926,1.950786,1.8904605,1.900056],[0.13693789,-0.6068537,-0.45951653,0.40019783,0.20114323,0.06448697,0.20764755,0.11922865],[0.34667563,0.11570819,-0.039411496,-0.08839137,0.5679751,-0.62228805,-0.11394839,0.029866053],[-0.05870426,0.05689163,0.019908879,0.04656887,0.035356674,0.062154844,0.01349006,0.011306633],[0.14697929,-0.15695271,-0.18567912,0.62833977,-0.42275926,-0.75644064,0.46856058,0.42023575],[-0.09665136,-0.028442705,-0.09873393,-0.08671958,0.009405032,0.06946907,-0.0196749,0.013212326],[0.34302136,-1.0131565,-0.29853043,-0.23185991,0.3653581,0.27021846,0.124381706,0.40688118],[0.38391054,-0.8827513,-0.41702822,0.16787043,0.121570885,0.18973754,0.61265326,-0.4990446],[-0.14666823,-1.2322048,0.30392748,0.0025217098,0.36213705,0.28006598,0.21942003,0.416531],[0.31312788,0.51773494,-1.2498726,0.067915834,-0.092963226,-0.0435763,0.4876603,0.097034],[0.31210226,0.26157108,-1.0413877,0.34165722,-0.32706046,0.5934929,0.6370276,-0.80513215]],"output_bias":[2.2976432,-0.53492844,-0.53519875,0.40078104,-0.33353463,-0.65408444,-0.35306835,-0.23868984]}