{
  "input_size": 15,
  "hidden_size": 128,
  "output_size": 8,
  "hidden_weights": [
    [
      -0.4195152,
      -0.06332738,
      -0.022057222,
      -0.039453875,
      0.0043674577,
      -0.030286334,
      -0.3374528,
      -0.19510871,
      0.12805714,
      0.06304656,
      0.071593605,
      0.2703571,
      -0.08858548,
      -0.045964547,
      0.13163637,
      -0.076235496,
      -0.056737468,
      -0.06635707,
      0.00069195265,
      -0.01693625,
      -0.13558714,
      0.011309169,
      0.11839658,
      -0.01991608,
      -0.05963689,
      -0.35677037,
      -0.12322573,
      0.081644624,
      -0.10105595,
      -0.07085336,
      0.007979021,
      -0.10126167,
      -0.0744051,
      0.010116253,
      -0.041111544,
      -0.39395714,
      0.0044863224,
      0.029559731,
      -0.16392319,
      -0.21037132,
      -0.12995893,
      0.0035336374,
      -0.22064066,
      -0.031269383,
      -0.091005236,
      0.056869432,
      0.0070733964,
      -0.13151343,
      -0.098537765,
      -0.100472115,
      0.020973073,
      -0.078574456,
      -0.12739791,
      0.10670556,
      0.27301708,
      -0.028199412,
      -0.026201427,
      -0.071167216,
      -0.12707411,
      0.06585375,
      -0.310993,
      -0.05032258,
      -0.07054682,
      -0.12640943,
      0.012580867,
      -0.06418334,
      0.15737405,
      -0.09595588,
      -0.14076138,
      0.020601567,
      -0.08352295,
      -0.09483172,
      -0.04156436,
      -0.011177087,
      -0.051923577,
      0.012431341,
      -0.16805595,
      -0.019955397,
      0.03714255,
      -0.107074484,
      -0.07397488,
      0.00008392893,
      0.004516933,
      -0.07930086,
      0.02631976,
      -0.0029628277,
      -0.06995108,
      0.04763265,
      -0.15915449,
      -0.06577436,
      0.08750329,
      -0.12463906,
      -0.018624267,
      -0.07430282,
      -0.24984291,
      -0.099565,
      -0.08152369,
      -0.34919316,
      -0.28048605,
      -0.3348115,
      -0.1283841,
      -0.14919768,
      -0.071114466,
      0.2638927,
      -0.15516806,
      -0.0690824,
      -0.05913258,
      0.060723234,
      -0.03422267,
      -0.30359167,
      -0.0895559,
      -0.070215255,
      -0.065927416,
      -0.13424104,
      -0.055594727,
      -0.14722459,
      -0.40671375,
      -0.17321129,
      0.03211175,
      -0.5202962,
      0.084651284,
      0.08534406,
      -0.28963056,
      0.26451707,
      0.08946905,
      -0.09859937,
      0.23343869,
      -0.052329466
    ],
    [
      0.07206006,
      -0.21176966,
      0.05679608,
      -0.05315522,
      0.2505768,
      -0.027438,
      -0.1744209,
      -0.22176763,
      0.17479676,
      0.10629034,
      0.13073514,
      0.078878865,
      -0.113751486,
      -0.08677361,
      -0.029572628,
      0.0024569738,
      -0.053971663,
      -0.084939644,
      0.026193772,
      0.006736032,
      0.070735365,
      0.0066130906,
      0.21946904,
      0.047486246,
      0.20201586,
      0.14800987,
      -0.08620923,
      -0.018195694,
      -0.08986237,
      -0.059058115,
      -0.06500142,
      0.066801585,
      -0.023587562,
      -0.035225008,
      0.013760569,
      -0.30374673,
      0.047139354,
      0.135709,
      -0.1771006,
      -0.20416926,
      0.18093555,
      -0.04462773,
      -0.23573996,
      -0.08469541,
      0.07391094,
      -0.05754889,
      0.050865684,
      -0.0838074,
      -0.032941014,
      0.030680412,
      0.5132131,
      0.07005427,
      0.0072759865,
      0.96437216,
      -0.43609077,
      0.05855859,
      0.033414662,
      0.16514258,
      -0.024147343,
      -0.03378975,
      -0.29918766,
      0.032934435,
      0.044967737,
      0.26538414,
      -0.09216434,
      0.02809421,
      0.18296105,
      0.44813824,
      -0.066357754,
      0.019405004,
      0.059236724,
      -0.004786638,
      0.049243603,
      -0.055508193,
      -0.1691002,
      0.019762684,
      -0.055770796,
      -0.057791114,
      -0.38431638,
      -0.21606556,
      0.007864169,
      -0.00640183,
      -0.07007202,
      -0.058888007,
      -0.0027082379,
      0.026171617,
      0.052207526,
      0.17537858,
      0.21870837,
      -0.07567428,
      0.13051413,
      -0.066750795,
      -0.016324963,
      0.00076506287,
      -0.1615818,
      0.0115639195,
      0.109955296,
      0.22878477,
      0.08249422,
      0.27405894,
      0.4688447,
      0.20325989,
      -0.22249027,
      -0.4685024,
      -0.20230433,
      -0.019810244,
      0.097259894,
      -0.024128597,
      -0.16533545,
      0.34213564,
      0.0987475,
      -0.00046438907,
      0.09077331,
      0.02240435,
      0.08974732,
      -0.26892626,
      -0.2701046,
      0.050706968,
      0.08524501,
      -0.69420373,
      0.117288105,
      0.10782831,
      -0.027556628,
      -0.5258845,
      -0.63960505,
      0.036461048,
      -0.6876508,
      -0.5116321
    ],
    [
      1.0248011,
      0.042227253,
      -0.08340337,
      0.017646706,
      0.9619724,
      -0.074480906,
      -0.05435494,
      0.2726838,
      -0.12912066,
      -0.100026466,
      0.308023,
      0.06052587,
      -0.32612452,
      -0.088135555,
      -0.31374767,
      -0.06302166,
      -0.030104758,
      -0.064764105,
      0.009496745,
      -0.025922459,
      0.40972343,
      -0.07955007,
      0.139541,
      -0.022003092,
      -0.06989858,
      0.2729544,
      0.04263025,
      -0.27878708,
      0.029805696,
      -0.017181536,
      -0.08999465,
      -0.08258941,
      -0.047774076,
      -0.13435534,
      -0.06925129,
      0.60458076,
      -0.074686505,
      0.611533,
      0.6341809,
      -0.05046195,
      0.11385302,
      -0.40541926,
      0.30807194,
      -0.058259606,
      0.08907052,
      -0.13240781,
      -0.09802958,
      -0.092394,
      0.027982801,
      0.07942681,
      0.4911105,
      0.01226523,
      -0.018803094,
      0.60978746,
      1.5521973,
      0.016006447,
      -0.044012897,
      -0.14574994,
      -0.12083289,
      -0.1467778,
      -0.07559077,
      -0.05561438,
      -0.033402227,
      0.20199211,
      0.041522074,
      0.0216191,
      0.11746931,
      -0.19523948,
      0.13553725,
      0.4418583,
      -0.0019019097,
      -0.0009254345,
      -0.03571052,
      0.0788983,
      -0.17557418,
      0.04736265,
      0.25171039,
      -0.038067963,
      0.14500079,
      -0.48373947,
      -0.076324195,
      0.104105845,
      -0.22452128,
      0.023686964,
      -0.13678227,
      -0.06356192,
      0.03984932,
      -0.05033873,
      -0.3296896,
      -0.14422975,
      -0.0790841,
      0.08476999,
      -0.04100866,
      0.025058813,
      0.2885806,
      -0.014583729,
      0.53975415,
      1.8518631,
      0.011004384,
      0.21031345,
      0.13553624,
      -0.17657088,
      0.054648455,
      -0.48961818,
      0.27485335,
      0.005464986,
      0.019428577,
      0.09577571,
      -0.059758965,
      1.6021647,
      -0.014600379,
      -0.021722337,
      0.014079117,
      -0.5081104,
      -0.054084737,
      0.17677747,
      -0.12964547,
      0.40946013,
      0.15447544,
      0.52222043,
      -0.12204697,
      -0.16198973,
      0.47101587,
      0.6237538,
      -0.26914597,
      0.06010633,
      -0.87972647,
      -0.16092339
    ],
    [
      0.508666,
      0.6132598,
      -0.0647641,
      -0.033553813,
      -0.055715047,
      -0.030700281,
      -0.10890834,
      0.30377093,
      0.4632651,
      0.22010568,
      -0.9265709,
      -0.76496524,
      -0.49905545,
      0.09754219,
      -0.8120202,
      -0.15327202,
      -0.016269432,
      -0.06337817,
      0.03730651,
      0.17798805,
      -0.10706554,
      -0.072700575,
      -0.8084539,
      0.053981625,
      0.4763431,
      0.20563915,
      -0.64547557,
      0.707253,
      -0.09162116,
      -0.092624955,
      -0.061210226,
      -0.0744241,
      -0.0076086074,
      -0.40637845,
      0.07294438,
      0.021660924,
      -0.001407668,
      0.43467137,
      -0.9209248,
      -0.047363926,
      -1.1675938,
      0.06871496,
      0.3885447,
      0.037639387,
      0.059286352,
      -0.12080891,
      -0.10826377,
      0.446626,
      -0.053259216,
      -0.059069753,
      0.5699988,
      0.06265557,
      0.061815735,
      0.026059467,
      -0.17473315,
      -0.08058417,
      -0.052102607,
      0.16058533,
      0.80459297,
      0.23601548,
      0.052734897,
      -0.025733307,
      0.021064136,
      0.33651063,
      -0.081511304,
      -0.6310447,
      -0.22238404,
      -1.2207904,
      -0.20921974,
      -1.0280734,
      -0.0948329,
      -0.40398872,
      0.031055888,
      -0.04449998,
      0.8572368,
      -0.05129693,
      -0.23612222,
      -0.04846883,
      0.70711976,
      0.23731399,
      -0.08295369,
      0.17737895,
      0.5670582,
      0.020190954,
      0.5751191,
      -0.0014957413,
      0.06280755,
      0.22477406,
      -0.32888827,
      -0.0048617735,
      -0.20516153,
      -0.026722308,
      0.3507627,
      -0.021414831,
      0.3208297,
      0.04926207,
      -0.32761976,
      0.50200015,
      0.45586756,
      0.14615244,
      -0.008104619,
      -0.66979283,
      0.6778831,
      -0.48976627,
      0.32787564,
      -0.038535047,
      0.0040367935,
      -0.087092124,
      0.5228154,
      -0.3703514,
      0.050375402,
      -0.023743834,
      -0.011193372,
      -0.5796754,
      -0.16094539,
      0.07116826,
      -1.0831876,
      -0.05792469,
      0.0014484356,
      0.19925253,
      -0.25691676,
      0.382857,
      0.35617164,
      0.16557316,
      1.2376815,
      -0.029929735,
      -0.052293595,
      -0.034267955
    ],
    [
      -0.4439845,
      0.322641,
      0.035352368,
      0.014156231,
      -0.24276277,
      0.05939344,
      0.2648475,
      0.47958973,
      -0.55245566,
      -0.17167509,
      0.7558706,
      0.604327,
      -0.18918997,
      0.017951343,
      0.58328193,
      0.044059187,
      -0.068280935,
      0.034371093,
      0.12310569,
      0.033467524,
      -0.5474414,
      -0.05544224,
      0.5351358,
      -0.059610143,
      0.086996645,
      -0.12914081,
      0.22117345,
      -0.1826304,
      0.040079717,
      0.007917717,
      0.0027733129,
      0.018469125,
      -0.08943303,
      0.20959179,
      -0.07056786,
      0.47428122,
      -0.072274685,
      -0.28543288,
      0.48580125,
      0.21787804,
      0.40807483,
      0.081385665,
      -0.4218484,
      0.043332882,
      -0.053621445,
      0.09271154,
      0.24092545,
      -0.121631466,
      -0.0006890385,
      -0.030997569,
      -0.4640738,
      -0.011411926,
      -0.030307904,
      0.5863278,
      0.45085248,
      -0.08097184,
      -0.052077785,
      0.32040274,
      0.06241832,
      -0.027283698,
      0.21246864,
      -0.0740592,
      -0.03857627,
      -0.3849102,
      0.03184672,
      0.27495834,
      -0.044091508,
      0.60334367,
      -0.032965917,
      0.8459633,
      0.041179236,
      0.26345173,
      0.2649159,
      0.027248314,
      0.042655956,
      0.09125485,
      0.030065725,
      -0.0017001182,
      0.4160698,
      -0.23203492,
      0.05570393,
      -0.02889616,
      -0.033722643,
      -0.020802071,
      0.056737024,
      0.006700754,
      -0.046127886,
      -0.16203581,
      0.16955408,
      0.17402019,
      0.1394956,
      -0.043122705,
      0.037774753,
      0.05027778,
      0.111581594,
      0.017235618,
      0.6153907,
      -1.1391884,
      -0.64975435,
      0.24805728,
      0.6919899,
      0.34233472,
      0.548214,
      0.54410076,
      0.4219289,
      0.043882903,
      -0.07283988,
      -0.052513655,
      0.06979416,
      -1.2595743,
      -0.09831656,
      -0.03339046,
      -0.09415959,
      0.64205277,
      -0.09331005,
      -0.09210918,
      0.7793365,
      -0.1710039,
      -0.16680554,
      -0.17887245,
      0.23170285,
      0.04655535,
      -0.2838914,
      0.59653676,
      -0.004306153,
      -0.026342846,
      -0.2987304,
      0.15349358
    ],
    [
      0.32016006,
      -0.0022044184,
      -0.0689397,
      -0.010259863,
      -0.05321288,
      -0.055943057,
      0.13804142,
      0.24237955,
      -0.11252092,
      0.045937393,
      0.34639734,
      0.09130405,
      0.56117046,
      -0.04732969,
      -0.2905761,
      0.073149584,
      0.03309493,
      0.05661873,
      0.003538101,
      -0.04353813,
      -0.028515786,
      -0.005346656,
      0.10074044,
      -0.084241144,
      0.02323616,
      -0.19097868,
      0.12580477,
      0.12797728,
      -0.01766456,
      -0.08182979,
      -0.063436896,
      -0.09302133,
      0.013677592,
      0.16149184,
      -0.072060704,
      0.6210413,
      -0.098156355,
      -0.20033355,
      0.42293468,
      0.05546162,
      0.42812705,
      -0.2655666,
      0.8525032,
      0.030034252,
      -0.11720403,
      0.12943763,
      0.10453263,
      0.06314439,
      0.08162635,
      -0.02476032,
      -0.49638492,
      -0.021500167,
      0.17534238,
      1.2330706,
      0.5723437,
      -0.07828736,
      0.33548132,
      0.04276637,
      0.07012318,
      -0.09462439,
      0.045265757,
      0.0031219497,
      -0.102959745,
      -0.082087405,
      -0.032942683,
      0.0910411,
      -0.010738293,
      0.32226828,
      -0.06821511,
      0.27878648,
      0.015631204,
      0.018725846,
      0.0645113,
      0.02301452,
      -0.0007491085,
      0.044821236,
      0.8424743,
      -0.043249227,
      0.06334458,
      0.22762027,
      0.029570693,
      0.039551757,
      0.10025889,
      0.04458031,
      -0.28743762,
      -0.09495354,
      0.05999698,
      -0.017538773,
      0.046818007,
      -0.082758896,
      0.069482215,
      0.07183726,
      -0.0002816258,
      -0.095456004,
      0.04003631,
      -0.04794221,
      -0.2438533,
      0.10816865,
      0.44276246,
      -0.13147101,
      0.8163987,
      0.02792803,
      0.0064749713,
      -0.50148183,
      0.10307717,
      0.026269086,
      -0.06691043,
      0.0027638914,
      -0.0101089645,
      0.5690565,
      0.066367894,
      -0.08039274,
      -0.012585238,
      1.223846,
      0.23657778,
      0.13943523,
      0.14431511,
      -0.06506991,
      0.030806223,
      0.6043741,
      0.048732895,
      -0.3956377,
      0.45468134,
      0.39284736,
      1.1904131,
      0.015847012,
      1.1878949,
      -0.0241705
    ],
    [
      -0.14290006,
      0.120626494,
      -0.03730388,
      -0.025333239,
      0.40731925,
      -0.075062715,
      0.22961378,
      0.11428134,
      0.0023348732,
      0.010400134,
      -0.009098843,
      -0.0140014915,
      0.0691662,
      -0.026589986,
      0.12556972,
      0.13550538,
      -0.052108753,
      -0.019577926,
      -0.05141274,
      0.0138965715,
      -0.2300063,
      -0.018821597,
      -0.10473479,
      -0.07380116,
      0.028158454,
      0.4500659,
      0.09980611,
      0.20933464,
      -0.0041119605,
      -0.03329529,
      0.040232737,
      0.057391077,
      -0.09067731,
      -0.042768423,
      0.027941646,
      -0.10683856,
      0.044856526,
      0.2043788,
      0.0917129,
      0.028214157,
      0.02983509,
      -0.00028798328,
      0.517287,
      -0.03229408,
      0.10495959,
      0.15299195,
      0.120755516,
      0.111997575,
      0.080791175,
      -0.032577265,
      -0.07006526,
      0.027358087,
      0.30589256,
      -0.61112577,
      -0.28824788,
      -0.056155633,
      0.0248797,
      0.09064766,
      0.16759482,
      0.025556266,
      0.2347621,
      -0.07949193,
      0.07185455,
      -0.23713809,
      0.04819332,
      0.009461181,
      -0.20500487,
      0.06573913,
      -0.106276855,
      0.041051563,
      0.074196994,
      0.10143549,
      -0.1525065,
      0.0027499553,
      0.1373387,
      0.13057898,
      -0.04515885,
      -0.047172215,
      0.1725767,
      0.014206681,
      -0.0116461795,
      0.019903384,
      0.13176447,
      0.03783783,
      -0.0007640657,
      -0.014632419,
      -0.03905815,
      0.09817532,
      0.14601071,
      0.09649901,
      0.08075072,
      0.057098813,
      0.027322877,
      0.05083514,
      0.2588902,
      0.013716289,
      -0.16111708,
      0.013368988,
      0.5759288,
      0.28770387,
      -0.09773024,
      -0.039958872,
      0.05265984,
      0.28916138,
      0.06358172,
      0.053023953,
      0.04076906,
      0.06785742,
      0.022758411,
      -0.10294809,
      -0.07031887,
      0.01447498,
      0.058027662,
      0.17147964,
      0.010514648,
      0.08049216,
      0.39217126,
      -0.010927258,
      0.07205013,
      0.54866564,
      0.11725186,
      -0.19230796,
      0.5345729,
      -0.21005622,
      -0.46273977,
      -0.0007747635,
      -0.20790038,
      0.32943633
    ],
    [
      0.61902875,
      -0.47387162,
      -0.04587239,
      -0.06436133,
      -1.0130115,
      0.04119173,
      0.052330147,
      -0.8752118,
      0.7769447,
      0.21459854,
      0.08302834,
      0.060892608,
      0.3794475,
      -0.018648792,
      0.1825306,
      -0.04090175,
      -0.05508998,
      -0.046690047,
      -0.09387685,
      0.017727366,
      -0.9276203,
      -0.095497325,
      0.07698868,
      -0.09520521,
      -0.3340194,
      0.24746071,
      0.15560274,
      -0.05369362,
      0.066713296,
      0.04427901,
      0.00864397,
      -0.046991527,
      0.040483583,
      0.2553135,
      -0.015123624,
      -0.36051798,
      -0.08525588,
      -0.38294417,
      0.16042753,
      0.055572934,
      0.30973196,
      0.059670206,
      0.7023399,
      -0.0030594724,
      -0.04458722,
      0.23010416,
      -0.053569958,
      0.0526259,
      0.020559613,
      0.013556943,
      -0.06887598,
      -0.069130525,
      -0.0021057904,
      -0.95098686,
      -0.5695838,
      -0.07210674,
      -0.14467832,
      -0.5947433,
      -0.038802646,
      0.03846852,
      0.08053302,
      0.0029915571,
      -0.1078602,
      -0.77452534,
      -0.0058500725,
      0.022791414,
      -0.03701446,
      0.1605528,
      -0.5176515,
      -0.31888834,
      -0.013445147,
      -0.047616694,
      -0.4591832,
      -0.06450372,
      0.004582331,
      0.053084947,
      0.29912588,
      -0.03629963,
      -0.9885194,
      -0.017013242,
      -0.05490436,
      -0.42178816,
      -0.112345785,
      -0.016399933,
      -0.14318548,
      -0.011019565,
      0.02694815,
      0.36345252,
      0.02393321,
      -0.0047485284,
      0.13247752,
      0.054440875,
      0.027120965,
      0.032932874,
      -0.038767755,
      -0.040436365,
      -0.33337283,
      -0.24134132,
      0.65680563,
      0.040316686,
      -0.24501471,
      0.093709454,
      -0.5527487,
      -0.2884813,
      -0.7147312,
      -0.04261368,
      -0.090284534,
      -0.17352618,
      -0.32250863,
      -0.6814521,
      0.058686163,
      0.083075985,
      0.083548576,
      -1.33404,
      0.116816096,
      0.19995645,
      0.552599,
      -0.66806924,
      0.031518314,
      0.54873854,
      -0.0050525833,
      -0.20695603,
      0.46526527,
      -0.2568336,
      -0.1933334,
      -0.027313828,
      0.3246872,
      -0.13057573
    ],
    [
      0.55453545,
      0.06712685,
      -0.077251434,
      0.072016485,
      0.09397731,
      -0.08689719,
      0.61157763,
      -0.12162131,
      0.50333947,
      0.21188349,
      0.07070631,
      -0.054093894,
      0.26275998,
      0.06639287,
      0.15747558,
      0.114605844,
      0.0568692,
      0.09384554,
      -0.18072785,
      -0.034402274,
      0.04025633,
      0.0051892027,
      -0.0484506,
      0.0034859823,
      -0.039479215,
      -0.051362045,
      0.3517373,
      0.2094014,
      -0.059730597,
      0.10862173,
      -0.014373561,
      0.022663746,
      0.030668393,
      0.052866355,
      -0.064995535,
      0.16301374,
      -0.010590099,
      -1.0387225,
      0.22109891,
      0.3635459,
      0.29140118,
      0.15278988,
      -0.043543007,
      -0.042187523,
      0.023007445,
      -0.28005955,
      0.021522814,
      -0.08144842,
      -0.09734013,
      0.0045428057,
      0.4050161,
      0.06924647,
      -0.13289443,
      -0.85206646,
      0.4762644,
      -0.032909967,
      -0.054971498,
      0.18967985,
      0.030791396,
      0.043472677,
      0.5209271,
      0.0067302436,
      -0.099893354,
      -0.38424838,
      -0.056885056,
      0.275138,
      -0.33093014,
      0.19062091,
      0.083131365,
      0.23597443,
      0.030713921,
      0.04191864,
      0.07924715,
      0.0061351787,
      0.049265496,
      -0.039319932,
      0.16439107,
      -0.06860242,
      0.14531879,
      0.26952416,
      -0.025410175,
      -0.0063570435,
      0.05139618,
      -0.017839812,
      -0.17020094,
      -0.041410375,
      0.023622934,
      0.2915706,
      0.16545476,
      0.07947631,
      -0.16735138,
      0.009240405,
      0.040341612,
      -0.089609236,
      0.26133594,
      -0.067435145,
      0.1169848,
      -1.5650384,
      0.19410777,
      -0.10821627,
      -0.32308474,
      0.08607533,
      0.07778637,
      0.40225253,
      -0.06021834,
      -0.05045748,
      0.033881582,
      -0.016241085,
      -0.03246251,
      -0.121571794,
      -0.02695354,
      -0.08947667,
      -0.07799392,
      0.047125246,
      -0.16889569,
      0.008122584,
      0.89183426,
      0.990428,
      -0.07960001,
      -0.10276971,
      -0.0046790773,
      -0.22148806,
      0.13845877,
      -0.533525,
      -0.33125722,
      -0.041105915,
      -0.5128093,
      0.21325769
    ],
    [
      -0.03339731,
      0.12482,
      0.0689323,
      -0.014924362,
      -0.03947647,
      0.008128308,
      0.053272627,
      0.45482397,
      -0.2856636,
      -0.028826658,
      -0.13733554,
      -0.7276389,
      0.036749396,
      0.021500066,
      0.006141397,
      0.036789056,
      -0.08717149,
      -0.09132161,
      -0.0032754422,
      0.05547387,
      -0.2494718,
      0.044551633,
      -0.16951525,
      -0.083417505,
      0.13377236,
      -0.024402449,
      -0.07745981,
      -0.11034402,
      0.062008433,
      0.07336021,
      -0.043092012,
      0.03751359,
      -0.05454426,
      0.09655902,
      -0.07670901,
      0.077094436,
      -0.099479966,
      0.35266548,
      -0.003096362,
      0.06950467,
      0.037715174,
      -0.11959003,
      -0.090183266,
      0.073946185,
      -0.013635352,
      -0.06189008,
      0.122893676,
      0.112600654,
      0.09342902,
      0.033328958,
      -0.39833233,
      -0.02194035,
      -0.087159075,
      0.36152968,
      -0.21272676,
      -0.015459105,
      -0.009443968,
      0.025603017,
      0.4670269,
      -0.3545881,
      0.0017946735,
      -0.049765658,
      0.088386305,
      0.3899761,
      0.08428604,
      -0.0663915,
      -0.1519997,
      -0.018649742,
      -0.22227223,
      0.013190668,
      0.061987348,
      0.10889234,
      0.24786054,
      -0.07385685,
      0.11085928,
      -0.24337088,
      -0.009707835,
      -0.032275558,
      0.41877133,
      -0.025289971,
      -0.07734456,
      0.16384307,
      0.010813052,
      0.0015501231,
      -0.07089355,
      -0.022478268,
      0.032530922,
      -0.14792907,
      -0.09735408,
      0.01881409,
      -0.33334246,
      -0.06732288,
      0.0071932757,
      0.041916914,
      0.027903281,
      0.013155103,
      -0.20310374,
      0.47859868,
      -0.26714623,
      0.006224463,
      0.30481786,
      -0.042583324,
      0.250186,
      -0.0866076,
      0.2898818,
      0.05310636,
      -0.044744015,
      0.042880896,
      0.35421795,
      -0.29851857,
      -0.03871567,
      0.04491145,
      0.080617405,
      -0.03142568,
      0.008807942,
      0.016371265,
      -0.045546312,
      0.041103832,
      -0.011723109,
      0.046769686,
      -0.24339734,
      -0.008020363,
      -0.07079377,
      0.16744113,
      0.29974177,
      -0.053870916,
      0.092352636,
      0.05677045
    ],
    [
      0.084575534,
      -0.04118667,
      0.09169676,
      0.012508556,
      0.40813944,
      -0.007904649,
      -0.09765033,
      -0.2367835,
      0.2848211,
      0.0071021873,
      -0.024139581,
      -0.2366794,
      0.02791831,
      0.05527485,
      0.04794899,
      -0.07627986,
      -0.05443094,
      -0.008963272,
      -0.018266361,
      0.0031755026,
      -0.18175296,
      -0.08568277,
      -0.14945264,
      0.026558854,
      0.12620838,
      0.42878902,
      0.028589085,
      0.15383035,
      -0.035002068,
      0.07163582,
      -0.004935439,
      -0.020972835,
      -0.03661249,
      0.045649003,
      0.0516822,
      -0.21753864,
      -0.004676342,
      0.20332512,
      -0.010754798,
      -0.10557093,
      0.09621496,
      0.091720074,
      0.7604272,
      -0.007177688,
      0.08314651,
      -0.036662713,
      0.10707133,
      0.04498362,
      -0.041517172,
      0.06887726,
      -0.083906755,
      0.009057691,
      0.3009445,
      -0.49694315,
      -0.4053984,
      -0.0064589977,
      -0.11874334,
      0.09272008,
      0.055672094,
      -0.021800721,
      -0.12419567,
      0.018067881,
      0.099768825,
      -0.26289487,
      -0.008857662,
      0.06827748,
      -0.25395423,
      0.14004146,
      -0.14559872,
      -0.023554537,
      -0.07417626,
      -0.10216944,
      -0.055445246,
      0.02952559,
      0.12175056,
      0.08233937,
      -0.035808187,
      -0.03345354,
      -0.07226778,
      0.100907445,
      -0.0997777,
      -0.06427584,
      0.20621383,
      0.047349147,
      -0.22002195,
      0.015375569,
      0.091609895,
      0.12642823,
      0.14399979,
      0.0474449,
      0.003223824,
      0.013751836,
      0.05980587,
      -0.07614782,
      0.135122,
      0.023340248,
      -0.10459893,
      -0.096988566,
      0.5924002,
      0.52471185,
      0.061434843,
      0.1436381,
      -0.001301186,
      0.16252673,
      -0.16337058,
      -0.05877743,
      0.097554274,
      -0.046815403,
      -0.14172675,
      -0.12373536,
      -0.07152335,
      0.04402645,
      -0.0836068,
      0.26434696,
      -0.062276214,
      -0.018153701,
      -0.099132,
      0.08960586,
      0.020056967,
      0.50167054,
      0.024656875,
      -0.35713848,
      0.57501376,
      -0.2711324,
      -0.17539363,
      0.011103772,
      -0.04506595,
      -0.012329337
    ],
    [
      0.61600864,
      0.06974453,
      0.093431205,
      -0.013030929,
      0.33646238,
      0.059484404,
      0.13535397,
      -0.44033578,
      0.79103297,
      0.345947,
      0.09434328,
      0.11439601,
      0.22457705,
      -0.06058251,
      -0.13810249,
      -0.030379344,
      -0.08843367,
      -0.05885877,
      0.09989443,
      0.008747701,
      -0.8070823,
      0.00212498,
      0.11853885,
      -0.0027479334,
      0.4738942,
      -0.46780005,
      0.0069986195,
      0.21047589,
      -0.0059752315,
      -0.015647018,
      0.023953073,
      -0.008633477,
      0.020390425,
      -0.07446204,
      0.02835535,
      0.7980735,
      0.03656859,
      0.18309367,
      0.4217744,
      -0.07875417,
      -0.018177606,
      -0.24678941,
      0.31514096,
      -0.08602158,
      0.021156406,
      0.17706552,
      0.03574215,
      0.36286893,
      0.096925534,
      0.0464794,
      0.58777976,
      -0.03756977,
      -0.23283437,
      -0.8067246,
      1.1179868,
      -0.09853368,
      0.0004730949,
      -0.38151684,
      0.038602278,
      0.002716615,
      -0.009962043,
      0.009498619,
      -0.011639883,
      -0.58755255,
      -0.0069221416,
      -0.10995962,
      -0.17781211,
      -0.40883547,
      -0.46963006,
      -0.0038785299,
      -0.07858656,
      -0.3092592,
      -0.25265518,
      0.0921965,
      0.15513796,
      -0.08595487,
      0.34837428,
      0.044606663,
      0.017668378,
      0.33967167,
      -0.05884603,
      -0.08354323,
      0.16577625,
      0.07679246,
      -0.50597703,
      0.032337435,
      0.18891364,
      0.31680244,
      -0.36614048,
      0.0346789,
      0.045945756,
      -0.035351485,
      0.005076454,
      -0.077494115,
      0.32768324,
      -0.07598988,
      0.20766427,
      -1.4863834,
      0.2440493,
      -0.77345234,
      -0.18489423,
      -0.3084391,
      -0.019218642,
      -0.12418319,
      -0.3154214,
      0.07267176,
      0.056266174,
      0.022968363,
      -0.13924769,
      -1.4082401,
      -0.009028575,
      0.0037883902,
      0.097174354,
      -0.40041077,
      0.1610655,
      -0.29156056,
      0.11647505,
      0.106772125,
      0.024537906,
      -0.75392586,
      0.12482768,
      -0.7511051,
      0.27769026,
      0.5251023,
      1.0163183,
      0.065753676,
      1.0444571,
      -0.09886695
    ],
    [
      -0.8795155,
      0.019214058,
      -0.022287771,
      0.08788014,
      0.14777972,
      0.057064675,
      -0.06870678,
      0.05915279,
      -1.3677771,
      -0.5557995,
      0.12608056,
      0.1412694,
      0.03698926,
      0.097592644,
      -0.04545729,
      -0.04557216,
      -0.00799191,
      -0.046419334,
      -0.05723375,
      0.08932519,
      0.30399808,
      0.010478094,
      -0.024726849,
      0.05829503,
      -0.161267,
      0.060961917,
      -0.061448693,
      -0.5704981,
      0.035081483,
      -0.09872685,
      0.08045638,
      -0.07138269,
      0.025416382,
      0.043970842,
      0.07163907,
      -0.40603808,
      0.08260549,
      0.2636201,
      -0.15277326,
      0.10546009,
      0.052389763,
      -0.10309437,
      -0.77969265,
      0.035861425,
      0.055930592,
      0.044353075,
      -0.055737287,
      -0.136136,
      0.03825719,
      0.02937036,
      -0.55370086,
      0.038426347,
      0.014921133,
      -0.07979491,
      -1.1381508,
      -0.055433463,
      -0.07678302,
      0.107862,
      -0.050455585,
      0.020206135,
      -0.0530576,
      0.046252735,
      0.08949455,
      0.18520382,
      -0.016773388,
      0.10123124,
      0.17323707,
      0.013489246,
      0.088488474,
      0.04256186,
      0.0340107,
      0.07946368,
      -0.09879508,
      -0.08196583,
      -0.053871814,
      0.03326763,
      -0.35131356,
      0.014729619,
      -0.022058038,
      -0.024934862,
      -0.047159266,
      0.0595325,
      0.042344633,
      -0.028629325,
      0.30178952,
      -0.024652436,
      -0.044062253,
      -0.6759105,
      0.015794303,
      -0.03521315,
      0.1594218,
      0.023946904,
      0.013031817,
      0.069282986,
      -0.058626257,
      -0.07003882,
      -0.011487415,
      0.5941486,
      -0.7331272,
      0.064883195,
      -0.10851501,
      0.041534465,
      -0.052837647,
      0.08350164,
      -0.062527254,
      -0.08020918,
      -0.06618336,
      0.05546925,
      0.027292896,
      0.666065,
      -0.08577187,
      0.07089024,
      0.063507326,
      0.0722776,
      0.06552496,
      0.0157915,
      0.071377,
      0.021177245,
      0.18302827,
      -0.06344463,
      0.006725628,
      0.32222223,
      -0.48378724,
      -0.049513124,
      -0.6866144,
      -0.0067138225,
      -0.002630163,
      -0.088167906
    ],
    [
      -1.4702344,
      0.038792003,
      0.076551326,
      0.0061106416,
      -0.09368611,
      -0.024629083,
      -0.107263416,
      0.45064393,
      -1.6075032,
      -0.5822016,
      0.44254428,
      0.5543347,
      -0.466364,
      0.06275038,
      0.4549564,
      0.124021776,
      0.010802351,
      -0.006006688,
      -0.10314102,
      0.26500157,
      0.87389994,
      0.07620218,
      0.38189396,
      -0.0020760312,
      -0.35990626,
      0.43657106,
      0.03645761,
      -0.6493865,
      0.0110837,
      -0.060170203,
      0.09699113,
      0.015271039,
      -0.0052923,
      0.098772615,
      0.016645655,
      -0.79494077,
      -0.064641,
      -0.14509872,
      -0.2738472,
      0.13454336,
      0.07860318,
      0.2617142,
      -1.0186111,
      -0.0021341515,
      -0.05909533,
      -0.3446489,
      -0.000831159,
      -0.38917285,
      -0.0102021545,
      -0.06612055,
      -1.2787114,
      0.06478206,
      0.27819192,
      1.0668386,
      -1.1316065,
      -0.024048783,
      -0.02220501,
      0.30095747,
      -0.26717246,
      0.1829581,
      -0.12535349,
      -0.05244837,
      0.07791439,
      0.66109204,
      -0.007448948,
      0.24066137,
      0.43206763,
      0.39971521,
      0.4814795,
      0.1358275,
      0.053998064,
      0.2534176,
      0.16009606,
      0.028479317,
      -0.133427,
      0.050326176,
      -0.8533556,
      -0.08510003,
      0.104756735,
      -0.50566393,
      0.08620859,
      0.0991877,
      -0.12609492,
      0.06383801,
      0.9374772,
      -0.09543083,
      -0.11525309,
      -0.7293694,
      0.37157854,
      0.0038051815,
      0.24719974,
      -0.034973383,
      -0.15560311,
      0.08326902,
      -0.27020878,
      0.09326091,
      -0.1564,
      1.6081599,
      -0.87327296,
      0.71171075,
      0.1649017,
      0.4192952,
      0.07034554,
      0.3972349,
      0.4622917,
      0.09302574,
      -0.081144646,
      -0.0862863,
      0.1771237,
      1.6099752,
      -0.09196284,
      0.0937146,
      0.030270211,
      0.42785847,
      -0.064405836,
      0.17171668,
      -0.04044866,
      -0.07996713,
      0.11525899,
      0.58551335,
      0.28590214,
      1.0372151,
      -0.7033513,
      -0.32941478,
      -1.8168867,
      0.0712981,
      -1.6506659,
      0.06592811
    ],
    [
      -1.0015389,
      0.055722907,
      -0.052958123,
      0.023939908,
      -1.0082636,
      -0.080539204,
      -0.08323205,
      0.2766493,
      -1.5555853,
      -0.5571366,
      -0.07813995,
      0.17304808,
      -0.28160325,
      0.002887688,
      0.27323967,
      0.16699532,
      -0.06486702,
      -0.018576173,
      -0.12060463,
      0.14428018,
      0.7266135,
      -0.062487483,
      0.110747226,
      0.07629584,
      -0.5249228,
      0.4644946,
      0.04721927,
      -0.76792693,
      -0.10332961,
      -0.076978244,
      -0.03975317,
      0.045625865,
      0.052690487,
      -0.16206288,
      0.054755084,
      -0.7434621,
      -0.07276972,
      -0.11703543,
      -0.20752831,
      0.08997731,
      -0.1324186,
      0.040273532,
      -0.9577613,
      -0.09055145,
      0.08692506,
      -0.24635816,
      -0.12928593,
      -0.18340485,
      -0.03787362,
      0.06071262,
      -0.971848,
      -0.08524218,
      0.4084527,
      0.63847804,
      -1.0436337,
      0.03665509,
      -0.08925296,
      0.2782105,
      -0.11758133,
      0.016349854,
      0.027136667,
      -0.07406624,
      0.023149915,
      0.50791687,
      -0.087040894,
      0.17099194,
      0.28931573,
      0.48745573,
      0.30438727,
      0.17364292,
      -0.028605625,
      0.18729748,
      0.11315281,
      0.0016527486,
      -0.3556512,
      0.006270991,
      -0.2655981,
      -0.09651549,
      0.045241162,
      -0.2929622,
      0.055033237,
      0.015281474,
      -0.1521877,
      0.026406955,
      0.80545634,
      -0.082981326,
      -0.15448257,
      -0.8091644,
      0.19394924,
      0.07580613,
      -0.038509652,
      0.0035064865,
      -0.11168379,
      0.09669685,
      -0.17102922,
      0.014046781,
      -0.29096124,
      1.3185118,
      -1.0058327,
      0.4910094,
      0.18569192,
      0.3569862,
      0.00792854,
      0.23299044,
      0.12289817,
      0.03223136,
      -0.07691165,
      -0.02279733,
      -0.089586064,
      0.5154122,
      0.034833033,
      -0.03727764,
      -0.059891414,
      0.5138772,
      -0.04196777,
      0.21137702,
      -0.037936956,
      -0.33155444,
      -0.07936179,
      0.69969994,
      -0.0026926082,
      1.0057474,
      -0.57712555,
      -0.18873312,
      -0.42093349,
      -0.026595429,
      -0.76762515,
      0.15082712
    ]
  ],
  "hidden_bias": [
    0.50468576,
    0.071961865,
    -0.015626801,
    -0.039635323,
    0.16380787,
    -0.05226635,
    0.15191695,
    -0.19357257,
    0.47897154,
    0.07339548,
    0.051307604,
    -0.120640814,
    0.08713266,
    -0.093144335,
    -0.09113442,
    0.06586765,
    0.06829705,
    -0.04504137,
    0.019324208,
    -0.118906684,
    -0.27422234,
    -0.08674455,
    0.0010072659,
    -0.088434726,
    0.1587556,
    0.08563898,
    0.08367424,
    0.22971803,
    0.02093642,
    -0.0030236463,
    -0.046410304,
    0.013712886,
    -0.090265706,
    -0.045421883,
    0.02895305,
    -0.030928,
    -0.08451319,
    0.101278394,
    0.05832305,
    0.038736504,
    0.16990416,
    -0.083229326,
    0.45577186,
    -0.06501438,
    0.06169081,
    0.1029852,
    0.06252369,
    0.032369167,
    -0.059124377,
    0.032822248,
    0.24936645,
    0.002048426,
    0.01648685,
    -0.31001452,
    -0.12284248,
    -0.085086845,
    -0.09042207,
    -0.006740298,
    0.05071049,
    -0.027601156,
    0.08489454,
    -0.067095354,
    0.09608015,
    -0.23914094,
    -0.096734874,
    0.08646199,
    -0.14489938,
    0.029762426,
    -0.09507501,
    0.25979844,
    -0.06724767,
    -0.1117818,
    -0.16275391,
    -0.102280505,
    0.2078202,
    0.07824279,
    0.20051399,
    0.077426486,
    0.0067978487,
    -0.04231996,
    0.039604206,
    0.013290952,
    0.0092757745,
    -0.0153509965,
    -0.16757166,
    -0.036304638,
    -0.026988044,
    0.14116637,
    0.008541467,
    0.08924881,
    0.04781759,
    -0.02402395,
    -0.007732969,
    -0.0789765,
    0.25271556,
    0.030782904,
    -0.11246008,
    -0.045924317,
    0.28987554,
    0.017555106,
    0.013783868,
    0.08998033,
    0.07816686,
    -0.21996228,
    -0.104238786,
    -0.029085303,
    0.002018811,
    -0.029148322,
    0.09160345,
    -0.2676827,
    0.025591185,
    -0.044128444,
    -0.102916315,
    -0.4019372,
    -0.024616841,
    -0.030109724,
    0.30999547,
    0.15298662,
    -0.09891659,
    0.13186558,
    0.047838893,
    -0.15507275,
    0.31472364,
    -0.20328535,
    0.31024432,
    -0.010935947,
    0.1493863,
    -0.06150161
  ],
  "output_weights": [
    [
      0.26988176,
      -0.07875857,
      -0.17954546,
      0.57566005,
      0.44626868,
      -0.05666055,
      -0.95292187,
      -0.29097542
    ],
    [
      -0.41358638,
      -0.038939513,
      -0.15249781,
      -0.32080883,
      0.13786788,
      0.38053307,
      -0.1369706,
      0.4479717
    ],
    [
      -0.07600744,
      -0.0001403687,
      0.01334201,
      -0.044007305,
      0.011472903,
      -0.08013595,
      0.068298675,
      0.03162268
    ],
    [
      0.025122462,
      0.045444466,
      0.005757064,
      -0.010840851,
      -0.028974619,
      -0.090358526,
      0.08805389,
      0.06114694
    ],
    [
      0.28619808,
      0.007913694,
      0.070110455,
      -0.041115373,
      -0.70405847,
      0.71062106,
      -0.10160201,
      -0.046727505
    ],
    [
      -0.07934851,
      -0.015091941,
      -0.019853836,
      -0.08705086,
      0.04096559,
      0.002268006,
      0.027256427,
      -0.033328637
    ],
    [
      0.22736476,
      0.0098932795,
      0.07959004,
      -0.21684188,
      -0.29321054,
      0.3492229,
      -0.06812312,
      0.04230942
    ],
    [
      -0.0026980836,
      -0.13834265,
      -0.1597326,
      -0.4824161,
      0.73914486,
      -0.5191398,
      -0.12226676,
      0.70279026
    ],
    [
      0.026019206,
      -0.17551793,
      -0.20879908,
      0.6247779,
      0.6079269,
      0.4973908,
      -0.8459018,
      -0.4509842
    ],
    [
      -0.07397285,
      -0.17404264,
      -0.025873521,
      0.25316766,
      0.19443358,
      0.17666554,
      -0.41436207,
      -0.08439712
    ],
    [
      0.934648,
      -0.065715455,
      -0.15726584,
      -0.28236815,
      0.1680569,
      0.25152874,
      0.22879457,
      -0.92857224
    ],
    [
      0.2520493,
      -0.3998231,
      -0.25806695,
      -0.02428489,
      0.63521194,
      0.71797407,
      0.7160699,
      -1.376801
    ],
    [
      0.5876635,
      -0.038507488,
      0.0038463308,
      0.1105779,
      -0.38549098,
      -0.14623049,
      -0.17706786,
      -0.11810852
    ],
    [
      0.016746461,
      -0.08869194,
      -0.041933924,
      0.004291395,
      0.0031718716,
      -0.084765255,
      0.0051186206,
      -0.05025996
    ],
    [
      0.67847353,
      0.03250786,
      -0.031746186,
      -0.6891945,
      0.1997382,
      0.164466,
      0.09012511,
      -0.19472289
    ],
    [
      0.1284548,
      -0.037604466,
      0.0018036572,
      -0.205696,
      0.07191301,
      0.07994547,
      0.047684856,
      -0.057555437
    ],
    [
      -0.052792974,
      0.004288891,
      0.09585511,
      -0.089108914,
      -0.0002554413,
      -0.10127906,
      -0.072048195,
      -0.008951361
    ],
    [
      0.05456553,
      0.038253758,
      -0.03883073,
      0.067034304,
      0.009136489,
      0.032684855,
      -0.021748064,
      -0.032938715
    ],
    [
      0.06257941,
      0.058318403,
      -0.095469356,
      -0.02770346,
      -0.14217937,
      0.09139339,
      0.008557894,
      0.019345779
    ],
    [
      -0.3368421,
      -0.02851558,
      -0.11268863,
      -0.05974176,
      0.097265124,
      0.11276834,
      0.13860974,
      0.12256697
    ],
    [
      -0.4634909,
      -0.20378605,
      -0.22263217,
      -0.42418388,
      -0.28665894,
      0.82044864,
      0.686745,
      0.035901237
    ],
    [
      0.028616883,
      -0.05616913,
      -0.09166386,
      0.0499937,
      0.0465597,
      0.007981658,
      -0.050107338,
      -0.064060904
    ],
    [
      0.50588894,
      -0.2222156,
      -0.23078486,
      -0.2799392,
      0.17168418,
      0.23824565,
      0.26192906,
      -0.81517273
    ],
    [
      0.0022012803,
      0.06604614,
      0.056358356,
      0.058996364,
      -0.06224078,
      0.060720157,
      0.073911645,
      -0.06298954
    ],
    [
      -0.21906976,
      -0.054668564,
      -0.025738606,
      0.26471555,
      -0.22648264,
      0.2891138,
      -0.27108356,
      0.25969785
    ],
    [
      -0.09065895,
      0.018739888,
      -0.054078896,
      0.763276,
      0.14529781,
      -0.40711153,
      -0.16979183,
      -0.055607215
    ],
    [
      0.5566364,
      0.0035372959,
      0.06230548,
      -0.38427955,
      -0.28718606,
      0.03500804,
      -0.10501011,
      -0.025322849
    ],
    [
      -0.5175564,
      -0.10980172,
      -0.106538266,
      0.54693526,
      0.32776463,
      0.29681113,
      -0.42663187,
      0.061249387
    ],
    [
      -0.056071304,
      -0.08934413,
      0.04731936,
      -0.062413104,
      0.050696645,
      0.07710213,
      0.0923822,
      -0.092237644
    ],
    [
      0.07708423,
      -0.05021213,
      -0.04199918,
      0.02000279,
      0.07975653,
      -0.091044456,
      0.00096327404,
      -0.00092775514
    ],
    [
      -0.02782826,
      0.07760539,
      0.0070044925,
      0.062858365,
      -0.0800687,
      0.05017511,
      0.015274929,
      0.07202956
    ],
    [
      -0.009213209,
      -0.073431596,
      -0.056151044,
      0.046210386,
      0.07476218,
      -0.00969371,
      -0.07856182,
      0.030013513
    ],
    [
      0.001016112,
      0.047768753,
      0.036783244,
      -0.06411404,
      0.016691785,
      0.008647486,
      0.046970982,
      -0.03424421
    ],
    [
      0.37668613,
      0.08591542,
      0.02797013,
      -0.17602752,
      -0.09516318,
      -0.018019728,
      -0.102228336,
      -0.023888804
    ],
    [
      -0.008190739,
      0.020731183,
      -0.013790309,
      -0.027540699,
      -0.032253433,
      -0.026673485,
      0.071777105,
      -0.055496305
    ],
    [
      0.060327023,
      -0.20912313,
      -0.1412885,
      -0.72617394,
      1.1128887,
      -0.01721129,
      -0.4652596,
      0.20666082
    ],
    [
      -0.018196896,
      -0.06020806,
      0.06737552,
      0.010580085,
      0.04214599,
      0.09776885,
      -0.06429513,
      -0.03717394
    ],
    [
      0.04632558,
      0.025328714,
      -0.04043388,
      0.72285825,
      -0.9114819,
      -0.14956447,
      -0.11849018,
      0.5000575
    ],
    [
      0.8849925,
      0.0061722626,
      -0.014685793,
      -0.54355264,
      0.40273076,
      -0.3937404,
      -0.20950152,
      -0.14732979
    ],
    [
      0.12853247,
      -0.12427068,
      -0.037523184,
      -0.2751287,
      -0.18215786,
      0.25179908,
      -0.04015038,
      0.06880832
    ],
    [
      1.178961,
      0.069775835,
      -0.0047914055,
      -0.3058077,
      -0.54939604,
      -0.29109135,
      -0.1502771,
      -0.10622826
    ],
    [
      -0.088711664,
      0.080858625,
      -0.028095933,
      -0.22790755,
      0.31334442,
      0.2349824,
      -0.11003647,
      0.0013128743
    ],
    [
      0.3470392,
      -0.15425412,
      -0.15075028,
      0.44734785,
      0.3068193,
      0.18726957,
      -0.79956824,
      -0.2678242
    ],
    [
      0.02199047,
      0.09434685,
      -0.08620803,
      -0.051644597,
      0.08722415,
      0.025564654,
      -0.032931335,
      0.046222832
    ],
    [
      0.06188186,
      -0.06762786,
      -0.024565488,
      -0.049317375,
      0.052405614,
      -0.05039332,
      -0.07061241,
      -0.06853275
    ],
    [
      0.16895756,
      0.04247712,
      -0.09932687,
      0.21458657,
      -0.15023006,
      -0.032247197,
      -0.09624429,
      0.042882588
    ],
    [
      0.21813503,
      0.064272575,
      -0.057723846,
      -0.04261009,
      0.023189468,
      0.03238523,
      -0.2641204,
      0.04565104
    ],
    [
      -0.38708022,
      -0.058180764,
      -0.026629975,
      0.44034395,
      0.19624673,
      -0.101587124,
      -0.1178575,
      0.13081574
    ],
    [
      -0.04592673,
      0.026224123,
      0.0068389485,
      -0.060203854,
      0.070181124,
      0.035823528,
      -0.026399417,
      0.018591888
    ],
    [
      -0.056362934,
      0.062045246,
      -0.059911605,
      -0.03524148,
      0.009756313,
      0.057583228,
      -0.099469684,
      0.065861806
    ],
    [
      -0.16497095,
      -0.15649606,
      -0.1712145,
      1.1054938,
      0.54265326,
      0.08139287,
      -0.6258092,
      -0.5148991
    ],
    [
      0.028297389,
      0.06509382,
      -0.037202228,
      -0.011396623,
      0.05978451,
      -0.081086375,
      0.037649464,
      0.03196071
    ],
    [
      0.06093843,
      0.029289221,
      -0.035603866,
      0.3568749,
      0.076436006,
      -0.29883534,
      -0.042378433,
      -0.09409668
    ],
    [
      -0.038288675,
      -0.17982565,
      -0.10026185,
      -1.661216,
      0.6092485,
      0.44063574,
      0.6118754,
      0.57752466
    ],
    [
      0.22484058,
      -0.023906013,
      -0.008141226,
      -0.77780944,
      0.9367211,
      0.47063383,
      -0.6520725,
      0.0035953892
    ],
    [
      0.055096604,
      -0.083284594,
      -0.028266571,
      0.053148367,
      -0.087449454,
      0.07050329,
      -0.09059608,
      -0.023537561
    ],
    [
      -0.01864876,
      0.060520444,
      -0.06137157,
      -0.16534454,
      0.2521578,
      -0.15036848,
      0.011123973,
      -0.09982624
    ],
    [
      -0.06956057,
      -0.15786387,
      -0.1950966,
      -0.23764993,
      0.53751653,
      -0.025988378,
      -0.024250893,
      0.26072672
    ],
    [
      -0.644097,
      -0.0016266842,
      -0.06937642,
      0.18081205,
      -0.01011759,
      -0.05403968,
      -0.11803794,
      0.6635724
    ],
    [
      -0.52675295,
      -0.16873044,
      -0.2894986,
      0.18936536,
      0.3547344,
      0.3572604,
      0.3135661,
      -0.22665304
    ],
    [
      0.019524444,
      -0.078941755,
      0.0425219,
      -0.28576663,
      -0.26916245,
      0.4286657,
      0.055428654,
      -0.092598
    ],
    [
      0.024779774,
      0.069872044,
      0.012951255,
      -0.004276082,
      0.08770818,
      0.066311665,
      -0.0913023,
      -0.0008440986
    ],
    [
      0.08634164,
      -0.010348005,
      -0.04126573,
      0.07688876,
      -0.050954644,
      -0.05392205,
      -0.022076305,
      -0.07808213
    ],
    [
      -0.2585007,
      -0.14251669,
      -0.042325545,
      -0.6143154,
      -0.35916308,
      0.25291827,
      0.40031016,
      0.7624659
    ],
    [
      -0.037935212,
      -0.09997886,
      -0.070635006,
      0.012032764,
      -0.010907447,
      0.011997521,
      -0.07064749,
      0.049892128
    ],
    [
      0.61532253,
      0.009436328,
      0.011175115,
      -0.31661803,
      0.0340956,
      0.029759636,
      0.07182224,
      -0.19286732
    ],
    [
      -0.280345,
      -0.16623695,
      -0.02056878,
      -0.3212399,
      0.2049128,
      0.25179017,
      0.33863017,
      -0.17434326
    ],
    [
      1.1735975,
      -0.13387333,
      -0.13383244,
      -0.84199625,
      0.011825227,
      -0.14315264,
      -0.023572829,
      -0.21328947
    ],
    [
      -0.023870924,
      -0.08743031,
      -0.15919296,
      -0.41387963,
      0.06664706,
      0.35336423,
      0.29537657,
      -0.10706169
    ],
    [
      1.0740482,
      -0.1504027,
      -0.096967876,
      -0.5988543,
      -0.07731648,
      0.14210498,
      0.13364677,
      -0.55320734
    ],
    [
      -0.07692784,
      -0.093473114,
      0.022605361,
      -0.09943285,
      -0.0039226906,
      -0.062219374,
      -0.050991964,
      -0.045410134
    ],
    [
      0.3169466,
      -0.05899295,
      -0.15064672,
      -0.34897447,
      -0.017045714,
      0.081434496,
      0.22653675,
      -0.0017217679
    ],
    [
      0.1484886,
      0.053522475,
      -0.09089398,
      -0.32552877,
      0.14882068,
      -0.13538083,
      -0.051615763,
      0.34610337
    ],
    [
      -0.020099917,
      0.06135743,
      0.05651603,
      0.08217351,
      -0.05271053,
      0.07221811,
      -0.049477294,
      -0.07582457
    ],
    [
      -0.88069266,
      -0.14173226,
      -0.16356039,
      0.37518647,
      0.24670433,
      0.23880424,
      0.08139185,
      0.41215166
    ],
    [
      -0.01577809,
      -0.18725023,
      -0.21981561,
      0.11084169,
      0.20135778,
      0.21068084,
      0.19483575,
      -0.31829858
    ],
    [
      0.65863,
      -0.15335834,
      -0.030584902,
      0.24244,
      0.13404965,
      -0.049161777,
      -0.49844873,
      -0.2675002
    ],
    [
      0.0794482,
      0.09937555,
      -0.0028312206,
      -0.07505987,
      0.017104246,
      -0.016740777,
      -0.011494614,
      -0.019641757
    ],
    [
      -0.15391779,
      -0.08811004,
      -0.036240336,
      -0.87951475,
      0.24046585,
      0.44329026,
      -0.2221897,
      0.8829462
    ],
    [
      -0.10968909,
      -0.10603023,
      -0.167678,
      0.59746104,
      -0.0989154,
      0.21658897,
      -0.04809423,
      -0.29673207
    ],
    [
      -0.04068725,
      -0.09551714,
      -0.040178288,
      -0.10444021,
      0.0855487,
      -0.04673078,
      0.031520545,
      -0.099480614
    ],
    [
      -0.038097,
      -0.110544145,
      -0.020898096,
      -0.24866335,
      0.052441854,
      0.099716134,
      -0.034584716,
      0.3130304
    ],
    [
      -0.6169773,
      -0.2282754,
      -0.14125818,
      0.31798533,
      0.18438874,
      0.17498314,
      0.04441768,
      0.18570793
    ],
    [
      0.09072746,
      0.076360434,
      0.009068128,
      -0.037861444,
      0.020269573,
      -0.0642736,
      -0.078842655,
      -0.0295118
    ],
    [
      -1.2380189,
      -0.3678122,
      -0.36415422,
      -0.4034091,
      0.4560519,
      0.6258408,
      0.7277511,
      0.3092483
    ],
    [
      -0.081520796,
      0.045626737,
      -0.09291189,
      0.062142514,
      -0.09087954,
      -0.026757218,
      0.056844257,
      -0.023299813
    ],
    [
      0.057987493,
      0.0032058207,
      0.03908344,
      0.20062412,
      0.123881206,
      -0.021793252,
      -0.031172952,
      0.03650342
    ],
    [
      -0.04473034,
      -0.038409427,
      -0.1474345,
      0.27321655,
      0.26045406,
      0.21127689,
      -0.4578065,
      -0.24801072
    ],
    [
      0.36666456,
      -0.104725815,
      0.04747685,
      -0.38094157,
      0.40606588,
      0.018412856,
      -0.08471584,
      0.02011181
    ],
    [
      0.0402881,
      0.016866112,
      0.067226246,
      -0.06395897,
      -0.10934744,
      0.10071655,
      0.024422912,
      -0.024357174
    ],
    [
      -0.009359435,
      -0.24257238,
      -0.16590488,
      0.028401606,
      0.3273436,
      0.38586485,
      0.33480066,
      -0.7233421
    ],
    [
      -0.034392748,
      -0.042197578,
      -0.023221016,
      0.067907356,
      -0.03552666,
      -0.10348985,
      0.057089858,
      -0.042794235
    ],
    [
      -0.4403923,
      -0.11349813,
      -0.1327055,
      0.1451134,
      0.11018544,
      0.098867394,
      0.032504007,
      0.018935204
    ],
    [
      -0.052507672,
      0.060684,
      0.02878501,
      0.077689685,
      -0.029744664,
      -0.094565846,
      0.042639792,
      -0.042246968
    ],
    [
      -0.10745447,
      -0.032045405,
      -0.009064652,
      -0.100754656,
      -0.24987917,
      0.31198552,
      -0.023990452,
      -0.01917899
    ],
    [
      0.043042313,
      0.065162815,
      0.022429803,
      0.047545936,
      -0.014803221,
      0.077838354,
      -0.003425974,
      0.016312376
    ],
    [
      0.30957487,
      -0.01507279,
      -0.08004681,
      -0.06322089,
      0.6458642,
      -0.12885638,
      -0.19366132,
      -0.5084373
    ],
    [
      -0.08956585,
      -0.09537894,
      -0.14582264,
      1.6306821,
      -2.712295,
      0.25613263,
      0.6360846,
      0.43775532
    ],
    [
      0.07116834,
      -0.23012447,
      -0.20445293,
      0.7086502,
      0.37209943,
      0.49261054,
      -0.7135137,
      -0.53975356
    ],
    [
      -0.098806635,
      0.016441189,
      0.03974465,
      0.47122997,
      0.4026855,
      -0.6234659,
      -0.22618596,
      0.008696952
    ],
    [
      0.26629674,
      -0.16028349,
      -0.08033373,
      -0.66357213,
      0.312941,
      0.019908331,
      -0.056009877,
      0.29279792
    ],
    [
      0.5347738,
      0.0630121,
      0.020653166,
      -0.61738,
      0.17178026,
      -0.10077303,
      0.03849032,
      -0.051543824
    ],
    [
      -0.23512246,
      -0.17026643,
      -0.066972874,
      -0.43763876,
      0.146203,
      0.4772668,
      -0.27949694,
      0.6563812
    ],
    [
      0.3613543,
      -0.070004255,
      -0.041572753,
      -0.66582024,
      0.55797666,
      0.10469811,
      -0.1351259,
      -0.1523696
    ],
    [
      -0.095880724,
      0.017520338,
      -0.10943285,
      -0.3176411,
      0.58659434,
      -0.5588651,
      -0.17728846,
      0.5140424
    ],
    [
      0.073824875,
      -0.03122691,
      -0.07119914,
      -0.038577806,
      -0.007802736,
      0.03996405,
      -0.050798137,
      0.027101474
    ],
    [
      0.016135076,
      -0.033994228,
      -0.0025432487,
      0.084742546,
      0.004348563,
      -0.082770884,
      0.012222999,
      -0.060311068
    ],
    [
      -0.015932184,
      0.09237134,
      -0.07467604,
      -0.02807036,
      -0.06872311,
      0.040793236,
      -0.019794188,
      -0.03708809
    ],
    [
      -0.34789973,
      -0.024018906,
      -0.016220337,
      -0.1263261,
      -0.044086993,
      0.09754749,
      -0.02841397,
      0.6226248
    ],
    [
      -0.0394341,
      -0.12960277,
      -0.06919329,
      -0.04845892,
      -1.4359431,
      1.1465918,
      1.0706431,
      -0.24911663
    ],
    [
      0.031252984,
      -0.0628431,
      0.05609055,
      -0.00086243375,
      -0.08320681,
      -0.05032613,
      -0.01957306,
      0.04412752
    ],
    [
      0.0026070261,
      -0.01605243,
      -0.038031947,
      -0.04053892,
      0.008011687,
      0.08449947,
      -0.08809075,
      -0.042074442
    ],
    [
      -0.054071553,
      0.009715466,
      -0.0049899044,
      -0.017703792,
      0.09157694,
      -0.015246191,
      -0.036224656,
      0.03895926
    ],
    [
      0.4196096,
      0.039450534,
      -0.10514356,
      -0.0029505808,
      1.0161467,
      -0.89123994,
      -0.13329367,
      -0.1638102
    ],
    [
      0.1456131,
      0.032055136,
      0.020246167,
      -0.22924311,
      -0.026445702,
      0.16161409,
      -0.093931474,
      -0.041131433
    ],
    [
      0.06621321,
      0.09178539,
      0.00049224566,
      0.39201328,
      -0.089938544,
      -0.20486222,
      0.028550722,
      0.059004955
    ],
    [
      1.2091132,
      0.036254797,
      -0.09944165,
      -0.8768892,
      -0.3722822,
      0.43763456,
      -0.15962763,
      -0.10760218
    ],
    [
      0.2682955,
      0.04381576,
      0.044769526,
      0.6400224,
      -0.50567204,
      -0.0606079,
      -0.0071712867,
      -0.081681035
    ],
    [
      -0.1368414,
      -0.09897139,
      -0.010930959,
      -0.03397697,
      0.029116629,
      0.076217994,
      0.068017766,
      -0.10620923
    ],
    [
      0.18427663,
      0.010967474,
      0.073708296,
      1.2487091,
      -0.24942297,
      -0.79208523,
      -0.13586193,
      -0.12086931
    ],
    [
      0.11073385,
      -0.1235115,
      -0.2576255,
      -0.01164115,
      0.22086206,
      0.25416425,
      0.22214611,
      -0.57005304
    ],
    [
      -1.0734738,
      -0.22195666,
      -0.28466028,
      -0.8035112,
      0.526184,
      0.7075469,
      0.8309287,
      0.27164596
    ],
    [
      0.34690195,
      0.033804674,
      -0.11266097,
      0.42546827,
      0.26955146,
      0.087876454,
      -0.56222653,
      -0.14208882
    ],
    [
      -0.12160379,
      -0.054585807,
      -0.19371559,
      -0.6571903,
      0.5771404,
      0.025091205,
      0.04177649,
      0.37392116
    ],
    [
      -0.6093327,
      -0.17084612,
      -0.068801954,
      1.1704421,
      0.008025134,
      -0.20182215,
      -0.88298553,
      0.5973787
    ],
    [
      0.099203594,
      0.08178211,
      -0.07476976,
      0.040589668,
      -0.038227964,
      -0.013603665,
      -0.024346188,
      0.05188281
    ],
    [
      0.33949196,
      -0.1438098,
      -0.09904039,
      1.0523728,
      -0.75461566,
      -0.4015371,
      -0.25953332,
      -0.07730745
    ],
    [
      -0.032433923,
      -0.049421538,
      -0.088097095,
      -0.04158705,
      -0.2610355,
      0.44108424,
      -0.05629834,
      -0.040454447
    ]
  ],
  "output_bias": [
    0.036643207,
    -0.33303535,
    -0.30330193,
    -0.054805838,
    0.24527408,
    0.84927243,
    0.07807827,
    -0.3919863
  ]
}