{"input_size":14,"hidden_size":64,"output_size":8,"hidden_weights":[[-0.04864982,-0.5237386,0.10965684,-0.933475,-1.2910361,-0.27411193,-1.7150352,1.3361684,-0.421072,-1.153786,0.7221226,0.2665297,-1.5518986,0.046698,-0.86496323,-0.5574504,0.44338945,-0.7099719,-0.960362,-0.30991367,-0.71452165,0.33071655,0.5603643,0.1722681,0.5719076,0.092475,-0.46868378,0.7783981,0.38374197,0.60986316,-0.20466405,-0.104504116,-0.515803,-1.3650628,0.18493912,0.65179217,-0.15035121,-0.06514368,-0.55368894,0.6894812,0.33948943,0.67031914,-0.6727806,0.2167919,-0.29590473,0.38325867,-0.33883566,-0.5330892,-1.0207336,-0.0479377,-1.0484838,-1.6294713,0.18202929,-0.08277519,0.81337965,-0.81501615,-0.09443305,-0.7216322,-0.5687817,-0.5382826,0.076515384,-1.4387727,0.27847812,-0.3821589],[-0.03280903,-0.1643449,-0.07558266,-1.330998,-0.032951456,-0.35588372,-0.3723507,-0.3119379,-1.2035562,0.3902476,-1.648534,0.4753964,-0.82854027,-0.510264,-0.49343663,-0.048551828,0.07683316,1.2750504,-0.29079804,-1.3786551,-0.8295557,-0.527591,-0.9467958,0.39928827,0.1334853,0.9393691,-0.47921968,-1.045612,-0.22491182,2.3985353,0.48419073,0.36738402,-1.7787392,-0.35818645,0.71752197,0.79031754,-1.502771,-1.5490183,-2.2657988,-1.3824351,-0.79049134,-1.5816321,1.1921436,0.01912037,-0.19039446,0.41157666,-0.5735228,-1.1662956,0.27189615,0.0022467608,0.3436169,1.461828,-0.19708179,-0.7551613,0.109339476,0.98780465,-0.8356151,1.3057917,0.78914005,-0.12645508,0.4820298,-0.13129742,0.20413025,-0.37859473],[-0.3036011,-0.45773047,-0.013192286,-0.13835604,-1.3988988,1.116921,0.90506446,-0.94330573,0.041310072,0.064145416,-0.57280713,0.5837226,-0.64010787,0.16156937,0.43241107,0.13587038,-1.499835,-1.3086432,0.08088098,1.3780379,-1.2909981,0.8065178,-0.19875093,-1.3022661,-0.029168786,-0.45544556,-1.402311,-0.10275435,-0.42150238,-1.9108399,0.25664467,-0.5979896,0.6580871,-2.3541071,0.9109101,2.3084137,-1.151704,1.5221591,1.6090848,-0.52054703,0.038767345,0.95900506,1.2020988,0.232429,-1.1679083,0.53717506,0.9843412,0.26194152,-2.0706706,-0.06811791,-1.1564509,2.3851166,-0.15991811,-0.7968416,0.098170884,-0.42869434,-0.5482637,0.0843693,0.7980158,1.2166076,0.48239848,-1.0350674,1.5146141,-0.34811968],[-0.058176525,-0.23640107,0.11914939,-1.983381,-0.2936078,0.23705813,0.09685508,-0.48743382,0.7044996,0.05414169,0.105446935,-0.12666677,0.19903077,0.5825892,-0.2117524,-1.8287832,0.7871703,-0.28842443,-0.11798061,0.05094179,1.1085192,-0.5952056,-0.81197864,0.6205787,-0.6364754,-0.05948637,0.16298656,-1.8214866,-0.428781,-1.2538964,-0.6236231,1.1350305,-0.37626016,0.35857892,0.2095962,-0.4214726,-0.19380939,-0.8010425,0.23195639,-0.62632394,-0.116728455,-0.8055213,0.2254028,0.2690744,0.38870257,-1.9062353,-0.5970736,0.8629963,0.48494223,-0.0818317,-0.8393969,0.10542291,0.21244444,-0.2272325,0.40395963,0.12479947,0.37625688,0.14972469,-1.0196317,-0.9183023,0.043494776,-0.2112253,-0.46736172,0.0348221],[-1.1614054,0.10583249,-0.26957518,-1.2173891,-0.38626444,-2.2904267,-0.050275687,-2.4051316,-0.56303954,0.2837109,-0.8214652,-0.08166251,0.51769364,-0.29879528,-2.4917135,-1.0467893,-0.25466934,-0.2507363,0.9807549,-0.06305434,-0.03861774,-0.07936599,0.28720787,0.575165,0.06943496,-0.40802798,1.2676473,-0.002219113,0.14854065,-1.1128985,-0.82268155,-0.68286,0.074969426,-0.7036637,-0.03445307,-1.013744,-0.12705119,-0.638371,-0.58876044,0.36095402,0.2926796,0.5140898,-0.31431141,-0.6211408,-0.10449002,0.71462125,0.19859768,0.5010326,0.647116,-0.030536795,-0.82644075,0.12815621,0.1438267,-0.21962786,-0.26689276,-0.65598905,0.28985605,-0.02450852,-0.08053375,0.18260328,0.13646765,0.18601422,-0.485153,-1.2035468],[-0.9919066,-0.043311816,-0.120070904,1.0705843,-0.57759964,-0.25699875,0.80035204,-0.24222764,-0.13115732,-0.009554425,-0.42807007,-0.031073764,-0.41853625,-0.12559226,0.41722497,1.2893049,-0.21078232,0.21900643,0.01436048,-0.33819106,-1.2194034,-0.07386582,-2.5350354,-1.2443619,0.6058306,-0.80059403,-0.19886346,0.22447476,-0.051515568,-0.8394818,-0.42903402,-0.28734437,-1.382477,0.3967231,-1.1140581,-0.5249812,-0.48021504,0.22737882,-0.033569973,-0.9880962,0.27092105,-0.48558617,-1.7990317,-2.5235157,0.03941819,-2.4550328,-0.59321606,-2.0814755,0.6769258,-0.012866455,-0.22856255,-0.16101857,0.12419373,0.24718034,-0.6081217,0.30802894,-0.2433013,0.38727546,-2.2251415,0.5629677,0.15613407,-0.8772868,-1.2762934,-1.2442743],[-0.96206385,0.7153464,-1.0929112,-1.1347375,0.9651541,-0.17726889,-1.3393996,1.0133564,1.2033944,-0.6797678,-0.2127134,-0.3802975,0.0126336245,-0.39041314,1.0583998,-0.13836184,-0.27761734,0.2799939,0.5104423,-1.1067634,0.82127273,-1.3144189,0.7547046,-0.49864197,-0.525072,-0.6210111,-1.1813737,-1.2293136,-0.6923052,0.5840635,0.12106874,1.4492141,-0.5787264,-0.7994035,0.015483886,0.46347225,0.71345913,-1.0187296,0.6667521,1.7959579,-0.9098473,-0.275764,0.59913903,0.6896791,0.12489891,0.44168326,0.7144719,-0.25183797,-1.899451,-0.05051483,0.7166597,-1.1789175,0.07480086,0.97070754,-1.5056689,-1.0553081,0.049123,-0.5542892,0.4222233,-0.03460878,-0.6615542,-0.71090835,0.31606755,0.29535833],[0.5549666,-0.7215156,-0.10874944,-0.15538645,0.8949071,0.48465085,-0.40096155,-1.0694509,-0.12500618,0.42328343,-0.37001744,-0.030793456,0.7930627,-0.03127695,0.101801686,-1.9856497,-1.7176956,0.57233304,-0.9702444,0.09190008,-0.6747951,0.10376738,-1.1218352,-0.25517374,-1.3264271,0.07397607,-1.1012597,0.09325764,0.612125,-0.79950255,-1.1055188,-0.99375945,0.06650356,0.037382353,-1.8909421,-1.0329317,-0.93671566,-0.3878717,-1.6631021,-1.6579118,-0.8079245,-0.9363885,0.08931788,-0.13610771,-0.009623734,-0.47878584,-0.525533,0.012032719,-0.29163155,-0.0019626115,0.13060482,-0.7099077,0.2710296,0.16087309,-0.9721587,-0.30737424,0.019636925,0.0011430186,0.77813715,-1.4469703,-0.5639021,0.7529219,-0.7273398,0.32709703],[0.5148553,-0.18365477,-0.2321182,0.7969751,-0.4062226,-1.1959826,0.2068853,0.049711134,-1.3785077,0.18543732,-0.4599063,-0.11026995,-0.19366866,-0.61411667,-0.34483066,-0.2186095,-1.2615265,-0.17178543,-0.9748282,-0.45845595,0.23637433,-0.0006103894,-0.23796982,-1.5328248,-0.6104856,0.1894768,-1.5831218,-0.39113888,-1.0108453,0.31323028,0.64403886,-0.41156784,0.9023667,0.81776625,-0.64938617,-1.7257733,0.07306482,0.25929663,-1.016082,-1.36758,0.07841647,-0.08230339,-0.7366558,-0.7332095,0.5288584,0.25655952,0.21719624,-0.47425696,-1.0479429,0.0113897845,0.5190666,-0.6015605,-0.006292491,-0.2697039,-0.751559,0.061699636,0.12751612,0.06898482,-0.037351824,-0.19061254,-2.067136,-0.26341504,0.5670462,0.20009579],[-0.3158951,-0.42178634,-0.5513511,-0.15619066,-0.4008413,0.42312592,-1.1038889,-0.11769593,0.22798613,-1.5092373,0.9490007,-2.3858058,0.57975745,0.5364099,-0.7270138,-0.42730966,0.05457264,-0.9206974,0.21069326,0.61531335,-0.8075054,0.7498349,1.8086698,-2.8260996,-0.6215579,0.92832714,0.4629318,0.0030669605,0.07492247,1.5499982,1.7781962,-2.2888818,0.4426722,-0.8152443,-0.4918906,0.11935349,2.7528994,0.8900251,0.7326061,-1.7592096,0.33658344,1.2889658,-0.031922225,-1.5954673,-2.3921723,0.082545914,-1.2789631,-1.4744565,-1.032057,-0.01713653,0.4370725,-2.0155933,-2.4468002,0.2666887,-0.05188344,1.4364856,0.104713604,-0.4437557,-0.21019337,-0.1574916,0.7524321,-0.5838334,-0.9321169,0.08152684],[-0.70342505,1.8251356,3.2433145,0.5346689,-0.4958417,-1.050757,-0.39889082,-1.6942655,-1.0087792,0.06880933,0.027954727,0.08126586,-0.123418085,-2.2403991,-0.22825806,-0.16707362,0.78848714,-0.0042458232,-0.06705058,2.0119987,0.598743,-1.155129,0.65469456,0.4522589,-1.5301507,-2.1389103,-0.6029721,-0.22709946,0.3906957,-1.334989,-0.44063503,-2.2368295,-0.649194,-0.16384512,1.2498802,-1.0563518,-1.1803542,-0.5535027,0.09150322,-1.5838432,-1.1008584,-0.07463997,-0.90158916,1.0721521,0.21671155,-1.686545,-0.19903518,0.5044109,-0.11134767,0.011152169,1.8299474,-0.570846,-1.6976266,-1.7037361,-1.3082151,-0.6612649,-0.90935576,-1.5569975,-0.80946183,0.287342,-0.55821896,0.68366814,-0.13792238,1.7397695],[-0.06919513,0.003355883,0.06558693,0.03022433,0.07731988,0.014426306,-0.08055258,0.06247527,0.06288577,0.02275078,-0.013679817,-0.040308047,-0.0007497519,0.032240756,0.006387666,0.07163086,-0.09744511,-0.0032974705,0.00725846,0.032163,0.052585073,0.041655324,0.06250777,-0.08816941,-0.031614043,-0.07851865,0.053224348,-0.0018805489,-0.0254118,0.034696884,0.079260536,0.0711484,-0.0048899874,0.0787378,0.09210975,-0.0016448274,0.04235656,-0.03039334,0.032549508,0.019394204,-0.045720626,0.014176227,-0.02785115,0.08124376,-0.07878158,-0.049161006,-0.043529678,-0.08498662,0.017235354,0.08609567,0.08412697,0.08183176,-0.0740637,0.011924863,-0.05057731,-0.08822627,0.02088523,-0.0005391836,0.062438436,0.025263168,-0.06477606,0.089848645,0.021201447,-0.01143086],[0.008397058,0.058442526,-0.085000254,0.074318655,0.04344601,0.056780823,0.093378,-0.069816254,0.08977511,-0.0034184232,-0.085411526,0.030978657,0.07007811,0.02932439,-0.03262496,0.08575576,-0.06475639,0.06952614,0.07266975,0.07865415,0.00040648133,0.090343185,0.094777204,0.0793741,-0.08233116,-0.059130814,0.04685808,0.0093303695,0.014693782,0.040482618,-0.022828981,0.033684947,0.0005161762,0.03182233,0.06573904,0.04772999,-0.012364432,-0.026239797,0.04787732,-0.036140703,-0.08783107,-0.016131997,-0.039362263,0.04312227,-0.060308218,-0.08721783,-0.042072654,0.09033487,-0.06190722,0.03633172,-0.08261094,-0.021555185,0.012683317,-0.08342449,-0.022851393,0.02409961,0.0720103,-0.0009051785,-0.038015604,0.07848594,-0.076370455,0.08961616,0.027680539,0.073386766],[-0.06952345,0.0005180836,-0.08217428,0.04816387,-0.003874682,-0.08842452,-0.021200083,-0.08445849,0.02095282,-0.06742576,0.05952976,-0.093050316,-0.04808381,-0.015072182,0.019763328,-0.06257586,-0.09010074,0.0008502975,0.004916236,0.06702366,-0.06330166,-0.007751584,-0.038537145,0.018277451,0.03825236,0.055987008,0.038857482,-0.030199572,-0.025960162,-0.057959843,0.0043673962,-0.0033166632,0.00038728863,0.07625752,0.019690916,0.011968657,-0.09758399,0.057134368,-0.018538311,0.03978715,-0.058755208,-0.010451362,0.05584211,0.07622943,-0.07419713,0.05959017,-0.0876863,-0.039897587,-0.06536427,-0.06701136,-0.04252994,0.00014791638,-0.051114894,-0.004992321,0.092225336,-0.06611607,0.080122404,-0.06235974,-0.06548245,-0.08053398,-0.07550683,0.08643908,0.0004919544,-0.09777975]],"hidden_bias":[-0.47999012,-0.15381326,-0.33283716,-0.66280127,-0.31404084,-0.44223112,0.06633335,-0.78622526,-0.119643025,-0.012709608,-0.67091155,0.03822973,-0.085520566,-0.13025078,-0.34455782,-0.6071627,-0.5501989,0.07346447,-0.13598111,-0.31108782,-0.35514632,-0.30773786,-0.84609205,-0.5683177,-0.34582308,-0.28116313,-0.78669345,-0.7622447,-0.4100813,-0.44957912,-0.16200554,0.1044446,-0.43671194,-0.40026087,-0.35855994,-0.26677123,-0.57729644,-0.33477005,-0.4095384,-0.66589457,-0.31255326,-0.50017524,0.076652884,-0.5189793,-0.049413968,-0.38150352,0.06842205,-0.4574475,-0.49052942,-0.017480973,-0.19322398,0.29469848,0.10859348,-0.19705486,-0.6686261,-0.19817789,-0.11942597,0.26724917,-0.0012122099,-0.13801846,-0.28728187,-0.4293261,-0.12144348,-0.48056033],"output_weights":[[0.025490476,-0.11001832,-0.46649945,0.16543299,0.507805,-0.6208052,-0.10299313,0.58954555],[0.38159385,-1.3830081,0.391234,-0.36372542,0.06532784,0.08748237,0.8913227,0.016329786],[0.63044906,-2.7728536,0.49656898,-0.6874684,0.9452213,0.8088106,0.29452094,0.3553727],[0.023025502,-0.53275543,0.8275762,-0.67634124,0.41115755,0.4222527,0.29469916,-0.46643028],[0.2384947,-1.6735419,1.0878592,0.38380584,0.48154232,-0.46714905,-0.2733942,-0.063548625],[0.08095631,-0.10138197,-0.87956214,0.8720027,-0.9676807,0.16563348,0.31362805,0.51140296],[-0.15510654,-0.2573754,-0.09738902,-0.22770089,0.56631744,-0.2652877,-0.42664558,0.9814749],[0.4511327,0.065785185,0.4565436,-0.17974517,0.7549026,0.3659699,-0.51672596,-1.4163629],[0.26735038,0.18108065,0.54381937,-0.35489365,0.6212124,0.2381782,-0.3850714,-1.1534506],[0.31585887,-0.7810903,-0.15207948,0.5311879,0.27910522,-0.41157705,0.3667452,-0.25312835],[0.16875929,0.2587067,0.46124825,-0.31186053,-0.16742224,0.000057050314,-0.6122936,0.32716304],[0.64781123,-3.8840947,0.5973064,0.5901855,0.45384464,0.39253953,0.34559926,0.9657211],[0.35585782,0.49022892,0.68799734,-0.15237708,0.4038261,0.41915032,0.15823463,-2.3683882],[0.7421535,0.5039977,-3.8714688,-0.24165565,0.5006856,0.8596869,0.7673441,0.8317065],[-0.095386095,-1.2422657,0.006487979,0.31769234,0.51457196,0.10741898,0.8721709,-0.40824708],[0.56678677,-0.7366434,0.46370623,1.2510833,-0.20108253,-1.0393256,0.038174167,-0.044762854],[0.024019808,0.28634354,0.249142,0.42755416,0.17855096,-0.34684464,-1.1070355,0.024767198],[0.225338,-0.91144735,0.40555173,0.24753718,0.18794222,0.7172047,0.3697258,-1.4878466],[0.23449029,-0.7252541,0.4756663,0.18586029,0.43464848,0.0699292,0.27536088,-1.1753868],[0.10321415,0.20173341,0.4804599,-0.6773498,-0.09537143,-0.71893114,0.3567538,0.423824],[0.28151345,0.1155335,0.60411024,0.59447056,0.20775314,0.36784348,0.20867306,-2.3728454],[0.28552392,0.4812715,-2.1668563,0.21211748,0.536782,0.16774629,-0.091373704,0.63186806],[0.18730906,-0.35751483,0.06302519,-0.91552395,-0.6839725,0.37712085,0.45035198,0.73469204],[0.115571246,0.5859985,-0.08039192,-0.54850566,0.4581384,-1.3313243,-0.2813544,0.7187136],[0.28957716,-0.026800675,-0.4680085,-0.15236443,-0.075607955,0.27301353,0.25392294,-0.032330178],[0.35100856,0.3781974,-1.5734534,-0.13177507,0.39712012,0.6311048,-0.37714827,0.30402026],[-0.5246603,-0.260623,1.5653465,-0.51825386,-0.5284455,0.229588,-0.5343442,0.33473292],[-0.011986366,-0.511971,-0.97949517,-0.13716006,0.44507194,0.49163482,0.3861706,0.25619507],[0.07774306,-0.08272816,-0.1928625,-0.114332415,-0.15667166,0.24329461,-0.41556078,0.4387775],[0.46871528,0.3942476,0.4116784,0.43807203,-0.43085673,0.4281214,0.9603693,-2.6229773],[-0.30745044,-0.10128244,0.10691179,0.25086144,0.8362617,0.15581642,-0.59318274,-0.49916622],[0.53919524,0.3694623,-1.4380525,0.6793189,0.29393843,0.5556247,0.75400156,-1.7926862],[0.13457073,-0.4346987,-0.8418095,0.103597604,-0.32159558,-0.034062635,0.40999702,0.75655663],[-0.28205153,-0.17299207,0.22481693,-0.40328202,-0.8639619,-0.17137319,0.1257998,1.4145291],[-0.10770569,-0.8089453,-0.34834012,0.5897063,0.57528543,-0.16617545,0.08102121,0.44722676],[-0.17270102,-0.28362188,0.54372585,-0.45532525,-0.6345361,0.79468924,0.10540413,0.07749012],[0.39106172,0.16921319,-0.5512314,-0.7464592,-0.041987456,0.09615529,0.8207396,-0.22860096],[0.14371559,-0.34133062,-0.46080604,0.0549806,-0.6843644,0.2501052,0.8980798,0.21022531],[0.11997826,0.64600503,-0.55594695,-1.2082756,-0.06299114,0.7211866,-0.8419718,1.192112],[0.5379926,-0.039023895,-1.6112837,0.2777705,0.95120746,-0.87095237,-0.054731887,0.8518113],[0.34283078,0.35327274,-3.0881007,0.37922773,0.5503746,0.426086,0.06812069,0.8693216],[0.059649993,0.5490512,-0.24212372,0.28515288,-0.40342394,-0.2877885,-0.14426956,0.13491124],[0.28937533,0.5547469,-0.23762278,-0.10694019,-0.7232913,0.011949636,0.5348821,-0.014724211],[0.14203419,0.33852315,0.4863882,-0.18134154,0.09213221,-0.063741945,-1.3894975,0.62230855],[0.5005278,-1.9192533,0.43683973,0.5579025,0.55930156,0.6563465,0.47585768,-1.0298201],[0.0071112406,-0.18389651,0.62396246,0.50531054,-0.45152938,0.03492245,-0.2142766,-0.49518007],[-0.08877302,-1.4742349,0.084151685,0.17272516,0.4104942,0.7321243,0.08934541,0.096021585],[-0.25234637,-0.22217037,-0.48720843,-0.014641775,0.71175313,0.3492454,-0.40274996,0.014838581],[0.3480271,0.3652759,-0.449957,0.53034925,-1.334195,0.3117817,0.79626197,-0.52125275],[-0.031876754,0.09138457,-0.041997265,0.046978123,0.08555173,-0.061744645,-0.0033773023,-0.026495382],[0.37526074,-0.4597412,0.60047364,0.27025566,-0.2655215,-0.45174575,-0.48983547,0.4907663],[0.4973981,-0.58109385,-0.79841256,0.12061861,-0.5162555,0.77820283,0.3063314,0.0054467428],[1.6040784,-4.9318643,-3.5434744,1.6452861,1.0064378,1.3984699,1.3255812,1.5075328],[0.5094308,0.5265078,-2.274515,0.55797964,0.27066693,0.6794337,0.81499416,-1.1739131],[0.101309106,0.21644601,-0.7011431,-0.022260338,0.32516488,-0.8644031,0.8875752,-0.035369333],[0.44046655,0.38990268,-1.2993146,-0.36695126,0.0733307,0.49836904,0.48609254,-0.29001847],[0.4906009,0.20662624,-2.504015,0.44533592,0.2911275,0.3288869,0.6712671,0.05615055],[0.6208269,0.31251886,-3.053733,0.675219,0.8532694,0.21828689,0.33744344,0.29082322],[0.11687734,-0.6015432,-0.14028096,0.59074664,0.3763707,0.1645576,0.552966,-1.2269846],[0.24682418,-0.7853655,0.2573505,0.59085584,-0.2822918,0.58731925,-0.71441424,0.18392983],[-0.055465296,-0.060105238,0.047821667,-0.6257244,0.57915115,0.25132173,-0.22516981,-0.13469839],[-0.7845557,-0.47744462,0.11640642,0.15914743,0.14968666,0.96713036,0.081539914,0.017679496],[0.15096906,0.29911464,0.25385314,-0.5896844,0.14978574,-0.24832413,-0.17762513,0.20201501],[-0.14555353,-0.7183269,-0.16785368,-0.45163724,-0.07027974,0.5839401,0.72970885,0.22933397]],"output_bias":[1.9980005,1.3059444,1.0079,0.3540715,-1.0337664,-1.4641709,-0.9632733,-1.4170971]}